baseline/conv2d/kernel:0
(5, 5, 3, 6)
[[[[-0.18620238 -0.0275356  -0.01174106 -0.03476983  0.06848169
    -0.06201758]
   [-0.10754228  0.05999213 -0.06953743  0.03084357  0.18402532
     0.05777047]
   [ 0.23795803 -0.11910475 -0.01583344  0.06543937  0.23217551
    -0.0280623 ]]

  [[-0.17340127 -0.22340882  0.17640103  0.07843543  0.03830188
     0.06834572]
   [-0.09493302  0.11262902  0.16853221 -0.01394025  0.10288653
     0.05675729]
   [ 0.08184667  0.08215655  0.0940919   0.03585921  0.11853592
     0.1970755 ]]

  [[-0.24679947 -0.18476258 -0.24543425  0.10938542 -0.03594986
     0.06211224]
   [-0.17194629 -0.15051517 -0.00499359 -0.02311076 -0.1141334
     0.09162833]
   [ 0.06784437  0.12471082 -0.23932403  0.04414635  0.06682477
    -0.09610594]]

  [[-0.39430314 -0.0174989   0.13488     0.01871064 -0.07894287
     0.13076799]
   [-0.18234888  0.0047599  -0.07811235 -0.08217416 -0.10605045
    -0.0965497 ]
   [ 0.06235236  0.05162994  0.01748613 -0.13670394 -0.15011895
    -0.01112983]]

  [[-0.19255957  0.1364021  -0.083958    0.06355671  0.01267951
     0.0549623 ]
   [-0.00633193  0.03979622 -0.00535628 -0.01397384 -0.1411838
    -0.21888885]
   [ 0.02372115 -0.21082884  0.17141826 -0.01338528 -0.11499534
    -0.12249542]]]


 [[[ 0.05758365  0.08486488 -0.26918638  0.05480617 -0.2290687
    -0.24922924]
   [-0.12190335  0.18959326 -0.1692327   0.05643943  0.03224742
     0.09585057]
   [-0.02259352  0.18685144  0.08527994  0.02292224  0.11035685
     0.04203323]]

  [[-0.01337399  0.03119046  0.1725083  -0.06962233  0.00587714
    -0.03159495]
   [ 0.14276873  0.17231414  0.273142   -0.07110085 -0.03903918
     0.05284793]
   [ 0.09776688 -0.024229    0.10452505  0.03957352  0.4217976
     0.29283142]]

  [[ 0.03387282  0.05652201 -0.04275291 -0.02765357  0.06035761
     0.08210633]
   [ 0.03580538  0.24071471 -0.0058597  -0.13008659 -0.01704528
    -0.06954991]
   [ 0.21885623  0.22877544 -0.26405784  0.11014149  0.18742028
    -0.00127363]]

  [[ 0.02171769  0.02729386  0.03675951  0.05340634 -0.02137792
     0.02815323]
   [ 0.11269544  0.20940675 -0.12136226 -0.04296899 -0.11133827
    -0.07139736]
   [ 0.07976519 -0.02063639 -0.03160602  0.0133498   0.03011123
    -0.01500866]]

  [[ 0.00130084  0.11923254  0.13064702 -0.06489886 -0.00449017
    -0.11978059]
   [ 0.06685569  0.03272452 -0.02559072 -0.03750853 -0.11912248
    -0.22510512]
   [ 0.06435789 -0.00697407  0.10440669  0.03014386 -0.25596067
    -0.10559922]]]


 [[[ 0.26612857 -0.23606652  0.04051276 -0.14440309 -0.17264198
    -0.04975114]
   [-0.02558963 -0.10739435  0.08001717 -0.2728931  -0.15281801
     0.1669978 ]
   [-0.05344797 -0.03273025  0.06266947 -0.31810194  0.01352638
    -0.01025583]]

  [[ 0.2720766  -0.0919001  -0.06785935  0.06893887  0.11283202
     0.20938185]
   [-0.0489441   0.1097723  -0.01728992 -0.27102998 -0.09170751
     0.12008864]
   [-0.04180317  0.1329975  -0.03170596 -0.24665506  0.18822359
     0.2307316 ]]

  [[ 0.182438   -0.3311933  -0.02199625  0.09867376 -0.09814882
    -0.05085167]
   [-0.07813427  0.02959313  0.06308606  0.19973487  0.13104023
    -0.08572776]
   [ 0.12641536 -0.09455395 -0.21730532  0.01995206  0.45177507
     0.16326441]]

  [[-0.0305338  -0.04855771  0.00398053  0.2171325   0.05612488
     0.07258913]
   [-0.0075188  -0.05925812  0.16554046  0.21596174  0.05593211
    -0.12304585]
   [ 0.08368719  0.08109999  0.06482001  0.15471141  0.18062806
    -0.18147801]]

  [[ 0.32491386 -0.15496938 -0.07012995  0.19781038 -0.14657539
    -0.02080591]
   [ 0.11753743 -0.12714729 -0.10475314 -0.10290012 -0.00459333
    -0.12752265]
   [-0.02558569 -0.02002983 -0.10403345  0.03987831 -0.131069
    -0.23847722]]]


 [[[ 0.20303962  0.04892839  0.09208708 -0.06188051 -0.02113868
     0.06768203]
   [-0.01653665 -0.18234235  0.18143573  0.15299945 -0.09569617
     0.02944294]
   [-0.22100918 -0.01324075  0.11777226 -0.0600782  -0.2691618
     0.06780244]]

  [[-0.00189594 -0.02646543 -0.21058016  0.04112872 -0.00644771
     0.23068567]
   [ 0.03420072 -0.16393    -0.17889163 -0.02523083 -0.22010998
     0.00929364]
   [ 0.04730585 -0.02470004 -0.07695833  0.11950003  0.11868946
     0.0977233 ]]

  [[ 0.23717311 -0.2101392  -0.18165767 -0.08572672  0.08110686
     0.01405599]
   [-0.13731009 -0.15239602 -0.01265743 -0.09029208  0.04819329
     0.06477611]
   [-0.18212013  0.18033126 -0.06843611 -0.06137639  0.2567469
    -0.06213465]]

  [[ 0.08631966 -0.23432621  0.25809842 -0.07583056 -0.06544843
     0.09831303]
   [-0.22969769  0.10502298  0.25694814 -0.05604988  0.1382724
    -0.16501136]
   [ 0.03376156  0.05482203  0.17252843 -0.08029024  0.15671629
    -0.14771992]]

  [[ 0.08010855 -0.13467005 -0.03693929 -0.02864282 -0.1430264
     0.05530627]
   [ 0.0849947   0.10110028 -0.05178216  0.17988978  0.12862511
    -0.23723511]
   [-0.10045181 -0.14879242 -0.00579234  0.10696822  0.15509263
    -0.14130656]]]


 [[[-0.01306082 -0.12961651 -0.0126785   0.21287708  0.06571895
    -0.08631647]
   [-0.03444758 -0.00913198  0.11963551  0.03324435 -0.12061825
     0.1080887 ]
   [-0.00949737  0.17423949 -0.00231303  0.27147436 -0.15727729
     0.07908165]]

  [[ 0.03387481 -0.12666701 -0.01834066 -0.04594818 -0.02897658
     0.14655073]
   [-0.06741944 -0.08791447  0.18648753  0.23476504 -0.09558207
     0.02106785]
   [-0.0717611   0.20067143 -0.05533697  0.00867706 -0.12893187
     0.14393558]]

  [[ 0.13102815 -0.02087931 -0.15809461 -0.13866267  0.02311418
    -0.05055548]
   [-0.04802644  0.1058245  -0.1279522   0.01652705 -0.09049143
    -0.14324881]
   [-0.02015357  0.10640614 -0.24646932 -0.06965695  0.07119533
    -0.0570928 ]]

  [[ 0.04514747 -0.12101831  0.02591453 -0.1208556   0.12041221
    -0.1794595 ]
   [-0.26227477 -0.12939285  0.01366107 -0.13269928  0.03341826
    -0.20976852]
   [-0.0698293   0.15343425  0.15973805 -0.092166    0.15999664
     0.13450329]]

  [[ 0.02413132  0.17078003  0.14682892 -0.2428922   0.17993174
    -0.01101429]
   [ 0.04258944  0.02012122 -0.09311613 -0.15226373  0.20251948
    -0.16755053]
   [-0.04577431 -0.12020337 -0.13183245 -0.04085481 -0.09681002
    -0.01574993]]]]
baseline/conv2d/bias:0
(6,)
[ 0.01651099 -0.07232185 -0.00845141  0.03498272 -0.02163818 -0.03577026]
baseline/batch_normalization/gamma:0
(6,)
[0.71110034 0.7555018  0.80212444 0.8903013  0.7146867  0.9351366 ]
baseline/batch_normalization/beta:0
(6,)
[-0.3398396  -0.16241708 -0.26135224 -0.47261095 -0.32457253 -0.16141653]
baseline/dense/kernel:0
(1536, 128)
[[-3.57533544e-02 -2.21632011e-02  1.06178187e-01 -2.07398739e-02
  -3.18714902e-02  7.18012219e-03  4.37463745e-02 -1.42258197e-01
   5.15789092e-02  1.58812925e-02  2.74310149e-02  3.76188383e-02
  -6.07539527e-02 -2.24461854e-02  5.91334235e-03 -5.81128076e-02
  -3.99211384e-02  1.43933268e-02 -8.75114463e-03 -7.06528360e-03
  -5.10288700e-02  7.39353651e-04  1.68677885e-02 -5.24523016e-03
  -7.23457038e-02 -4.92450148e-02 -8.88114143e-03 -5.49611598e-02
  -2.25333069e-02 -3.11344173e-02  3.43757868e-02 -1.23979785e-02
  -4.95983958e-02 -6.80672973e-02  2.12510154e-02 -5.99051379e-02
   2.26145256e-02 -7.70328194e-02  1.86725818e-02 -8.77700560e-03
   7.78144822e-02 -1.59548670e-02 -4.92437743e-02 -9.71791223e-02
  -6.16214834e-02  1.19589061e-01  2.16499884e-02 -2.10488364e-02
  -6.09774552e-02  1.24195712e-02  2.48203259e-02 -1.15976766e-01
  -5.83471209e-02 -1.99547689e-02 -2.81698350e-02  2.83044614e-02
  -1.06680999e-02 -5.79955429e-02  3.06323152e-02 -4.10457589e-02
   4.03569005e-02 -1.86378099e-02  6.45195087e-03  1.89727619e-02
  -1.00053631e-01 -4.75241281e-02 -2.77201049e-02 -1.96559373e-02
  -5.74022084e-02 -4.48950753e-03 -5.08674607e-02  5.34161925e-02
  -4.85916436e-02  7.19879344e-02  1.01071499e-01 -4.18797620e-02
   1.49260387e-02 -4.35085967e-03 -7.58922547e-02  1.43240467e-02
   4.56172489e-02  1.70892049e-02 -3.54247317e-02 -6.37724483e-03
  -2.78279209e-03  7.10857809e-02 -6.82935342e-02 -6.24265559e-02
  -2.60506850e-02 -1.21944984e-02  1.98146515e-02 -4.34499122e-02
   3.32913622e-02  4.22260799e-02  4.43045162e-02  4.93933186e-02
  -6.36569262e-02 -1.16165280e-02 -4.49020602e-02 -4.43894230e-02
   4.05253582e-02  1.03075290e-02  4.27428866e-03  3.25167365e-02
   6.12755679e-02 -2.76026316e-02  6.46331906e-02  8.54220800e-03
  -2.11358350e-02  5.23271300e-02 -2.94226082e-03  1.50334025e-02
  -2.07253397e-02 -6.08059913e-02  3.53954248e-02 -7.60329589e-02
  -5.22983596e-02 -3.45537215e-02 -1.62615639e-03  3.84031907e-02
  -1.95958037e-02  3.93096544e-02  4.84650992e-02  2.17165402e-03
  -2.50791349e-02  8.48125219e-02  1.64960325e-02 -4.28909250e-02]
 [-3.13385110e-03 -7.77904391e-02  3.54503803e-02 -1.05848804e-01
  -4.98847812e-02 -6.65040016e-02  3.59482691e-02  7.27019459e-02
  -9.90560837e-03 -1.03838714e-02  3.34103894e-03  3.68832122e-03
   1.69871170e-02  2.05609458e-03 -1.19372010e-02 -7.77106434e-02
  -6.28621504e-02 -3.68811339e-02  4.13069166e-02  3.42877954e-02
   3.23388563e-03 -7.65618458e-02  1.65289044e-02 -9.72215310e-02
   2.42359210e-02 -8.42811540e-03 -8.85550752e-02  7.42248297e-02
  -4.03367840e-02 -3.43708210e-02  2.89336890e-02  3.56921181e-03
  -3.07303853e-02  2.41176542e-02  2.38507781e-02 -2.02312768e-02
  -8.62834789e-03 -7.40824789e-02  4.15062644e-02 -1.11658741e-02
   5.00527285e-02 -3.65665928e-02 -6.01221398e-02  2.57101916e-02
   1.01781614e-01 -3.89186144e-02 -6.86677098e-02  7.17587098e-02
   6.43207580e-02  1.26472548e-01 -7.45794922e-02 -6.68573007e-02
  -5.72932474e-02 -8.29554126e-02 -4.58148234e-02 -2.61644237e-02
   1.23697827e-02 -3.37927714e-02  3.63230072e-02 -4.19889726e-02
   1.31009206e-01 -3.60185392e-02 -7.17683062e-02  8.73260293e-03
   1.15624532e-01 -4.45534922e-02 -5.46852723e-02  1.08342050e-02
  -6.87961802e-02  1.45103289e-02 -1.53720714e-02  3.84016298e-02
  -3.54649127e-02  3.79563235e-02 -7.37371016e-03  7.03677982e-02
  -6.78884760e-02  8.47587013e-04 -3.07313423e-03 -4.81345579e-02
  -9.71860997e-03 -3.15575823e-02 -2.82122884e-02 -2.60836780e-02
  -1.66348089e-02  2.86908615e-02  7.59381950e-02 -5.94671853e-02
  -3.47441435e-02  1.17241919e-01 -5.01680970e-02 -4.29704636e-02
   5.18582426e-02 -4.58123721e-02 -3.45322639e-02 -3.98728959e-02
   3.05651408e-02  1.78704876e-03  1.92053929e-01  7.73303560e-04
   2.14894190e-02 -4.75165732e-02 -6.95201308e-02  3.72445304e-03
  -8.14644173e-02 -1.82583645e-01  5.95016778e-03  2.55886912e-02
  -3.04604527e-02 -2.48808675e-02 -1.04377409e-02 -9.42416042e-02
   2.24520992e-02 -2.90301573e-02  1.82920531e-03 -7.16284737e-02
   2.67820135e-02 -2.24587563e-02  2.92656347e-02 -4.27038372e-02
  -6.30938858e-02  6.20772243e-02  6.28846288e-02  1.90678276e-02
   9.19351354e-04  7.06382468e-02 -6.35086671e-02  1.78539604e-02]
 [ 3.19558978e-02  3.97530943e-02 -6.17256165e-02  3.82091329e-02
   5.41166812e-02 -8.41087196e-03  4.31042388e-02  1.38964713e-01
   3.50338104e-03 -3.16798538e-02  4.71154638e-02 -4.45968211e-02
  -4.19841111e-02 -2.86762752e-02  1.52110998e-02  3.09018344e-02
  -3.17301936e-02 -2.78226007e-02  1.01183198e-01 -2.76725218e-02
   1.46390824e-02 -2.53899451e-02  4.39758599e-02  2.22102497e-02
   7.01843724e-02  1.57115266e-01 -3.13487882e-03 -1.75794810e-01
   1.02096759e-02 -2.72512697e-02 -1.08706532e-02 -4.30846289e-02
   4.42819856e-03  4.69485968e-02  4.64991443e-02  2.76246946e-02
   4.10716049e-02  4.89075780e-02  2.41776016e-02  5.98618202e-02
  -6.32344708e-02 -1.31860077e-02  3.65537480e-02  8.13456327e-02
  -6.19775616e-02  1.90730542e-01 -1.01052947e-01 -1.06866769e-01
  -1.71777792e-02  6.02396578e-02  9.68648642e-02 -6.39027916e-03
   2.61954069e-02  2.09881272e-03 -2.52281092e-02 -6.47655651e-02
  -1.74986109e-01 -4.86761704e-02 -6.32814392e-02  3.32827121e-02
  -8.74205083e-02 -1.18540991e-02  7.68267438e-02  5.26077151e-02
  -1.70736849e-01  5.30841798e-02 -3.89420055e-02 -4.22898820e-03
   1.73569486e-01 -5.00774048e-02 -3.31917219e-02  3.92588302e-02
   2.37107351e-02 -1.76300079e-01 -4.27283114e-03  2.69325520e-03
  -6.39808550e-02 -1.37861781e-02 -8.76671672e-02 -5.26366681e-02
  -5.12234531e-02 -4.07963954e-02 -9.31413472e-02  4.57884073e-02
  -6.70009339e-03 -3.81753780e-02  8.63652211e-03  5.16473241e-02
  -5.20430803e-02 -1.67155057e-01 -1.42599121e-01  1.01781704e-01
   1.12601347e-01  3.59047130e-02  4.24798094e-02 -5.22672646e-02
   1.07667223e-01 -1.97408840e-01 -1.88366055e-01 -4.75432202e-02
  -4.43258993e-02 -3.84283848e-02  9.82998637e-04 -4.71491590e-02
  -1.01897381e-01  1.59460947e-01 -8.82424563e-02  3.72617953e-02
  -4.50243056e-02  2.93469578e-01  2.71346197e-02  2.06725493e-01
   7.67352153e-03 -9.24343243e-03  3.36381942e-02  4.47707996e-03
  -5.13469689e-02  4.50991355e-02 -5.13403267e-02 -3.63944583e-02
  -1.02475155e-02 -1.16303355e-01 -9.48445424e-02  2.49506952e-03
   2.05201119e-01 -1.34593144e-01  4.27800044e-02  3.45941596e-02]
 [-2.99224351e-02 -6.02898262e-02  2.22994331e-02  4.59434316e-02
   2.16143522e-02  4.21414115e-02 -1.00143723e-01  1.90392226e-01
  -6.29200935e-02  3.13919783e-02 -4.33961861e-02 -1.42594412e-01
   2.68542580e-02 -3.01070679e-02  4.75089811e-02 -4.25392278e-02
   4.42484580e-02 -4.61002924e-02 -2.08951682e-02  1.18637737e-02
  -6.41457811e-02 -6.65908232e-02  1.99138690e-02  8.12278595e-03
   8.13533925e-03 -4.78287926e-03 -4.10817899e-02 -2.87301671e-02
  -3.38386744e-02  4.85611930e-02 -4.57015336e-02 -4.06968258e-02
  -3.52226160e-02 -3.03623807e-02 -4.52729128e-02 -5.43193519e-02
   1.21677361e-01  3.19772144e-03 -7.45891631e-02 -3.12154740e-02
  -6.41511753e-02 -6.53940588e-02  2.05429662e-02  1.87850446e-02
  -1.80922866e-01  1.77343726e-01  3.00592370e-02  3.47661264e-02
   9.90139693e-03 -4.20233682e-02 -1.17065996e-01 -5.15249111e-02
  -4.31145765e-02 -6.53923452e-02 -4.00200933e-02  7.31531680e-02
  -1.67837709e-01  2.35918593e-02 -3.70721482e-02 -2.73672752e-02
  -5.10137528e-03  3.59203108e-02  1.46549763e-02 -8.76412913e-02
   5.40640876e-02  3.43061276e-02 -2.09549386e-02  3.60906571e-02
   1.99876651e-01  3.44152376e-02  1.44725023e-02  1.03408685e-02
  -5.72511330e-02 -7.17780087e-03 -1.31295800e-01  2.34397277e-02
   3.30083966e-02  2.51445314e-03 -7.63054863e-02  3.69440988e-02
  -6.47410825e-02  1.86625626e-02 -1.15588509e-01 -3.72035615e-02
   1.09314276e-02 -6.52387291e-02 -4.56562601e-02 -4.53102961e-02
  -6.99787363e-02 -8.30686688e-02 -2.72855200e-02 -2.87005845e-02
   5.82657307e-02  3.41192074e-02 -3.27423289e-02  1.57874729e-02
  -1.11627512e-01 -1.34972766e-01 -1.09241180e-01  1.39166946e-02
  -4.79310751e-02  2.17796806e-02  6.43625343e-03 -1.12753594e-02
  -6.60776421e-02  9.45566520e-02  1.31680956e-02  5.27230762e-02
  -3.66365835e-02  7.46757090e-02  4.01065275e-02  7.36570209e-02
  -2.22917292e-02  4.17144783e-02 -1.27188694e-02  2.94417012e-02
   4.93470021e-02 -5.45674860e-02  1.11419987e-02  3.23305912e-02
   3.27108167e-02  1.51422456e-01 -7.41273761e-02 -1.88040864e-02
   2.42353487e-03  6.55713603e-02  3.94241139e-02 -7.19148368e-02]
 [ 4.53077517e-02 -4.92616184e-02 -6.41198158e-02  6.81315511e-02
  -1.16606392e-02 -5.36983181e-03  6.82542995e-02 -1.95655659e-01
   1.83473416e-02 -8.76519755e-02 -6.87941909e-02  5.95421791e-02
  -8.75396430e-02 -7.99514428e-02 -1.11912517e-02 -3.37522104e-02
  -2.37309635e-02 -7.47677498e-03 -9.32567343e-02 -4.73051565e-03
  -2.91262176e-02 -2.07780562e-02 -8.96610413e-03  4.18294733e-03
  -1.34271696e-01 -3.08131576e-02 -3.51602025e-02 -8.44311714e-02
   1.81538984e-02  3.43539193e-03 -3.43407951e-02 -2.09182091e-02
   6.31165225e-03 -1.98286474e-02  3.73028554e-02 -1.20511819e-02
  -9.26377811e-03  3.18204402e-03  1.34537043e-02 -2.97038369e-02
  -6.09206595e-02 -4.67594666e-03  6.17277659e-02 -1.09588671e-02
   2.02389769e-02  8.03291127e-02 -4.04892154e-02  1.11000212e-02
  -6.03497848e-02 -2.37708054e-02 -3.65849584e-02  2.74976958e-02
   5.02403714e-02 -5.37410937e-02 -1.21269200e-03 -6.12840056e-02
  -9.86814778e-03 -4.21957485e-02 -1.72016788e-02 -6.47548214e-02
   1.34403529e-02 -1.23726123e-03 -4.66057211e-02 -5.19024692e-02
  -1.03448100e-01 -4.41226177e-02  2.29858402e-02  5.05686924e-02
  -1.81464806e-01 -4.33948040e-02  4.65906262e-02  9.87335574e-04
  -1.07068084e-02 -1.53366281e-02  3.25485282e-02 -1.03638180e-01
   9.85435210e-03  6.35875203e-03 -2.84122434e-02 -7.10809156e-02
  -5.93579747e-02  4.54225168e-02 -5.07687479e-02 -1.92990415e-02
   4.57334667e-02  1.28294706e-01  2.70244516e-02  5.37434816e-02
   4.70618196e-02  3.43582928e-02  5.21828756e-02 -6.62697330e-02
   8.53679201e-04 -2.90894285e-02 -3.35161611e-02  4.36372543e-03
  -5.80981597e-02 -6.65942719e-03  4.36062738e-02 -5.24855172e-03
   4.21378436e-03  1.47901010e-02  1.61879659e-02  2.92699151e-02
  -9.76031739e-03 -9.75230858e-02  8.22912976e-02  7.68355206e-02
   5.34211984e-03  1.22608669e-01 -1.68980323e-02 -4.32650670e-02
  -3.37333903e-02 -1.37873758e-02 -6.45603985e-03 -3.54123414e-02
  -6.11627065e-02  3.33800204e-02 -1.66565888e-02 -2.21954081e-02
  -4.62670624e-02 -1.08952619e-01  7.80153126e-02 -3.23947594e-02
   6.65132701e-02 -6.90489933e-02  1.24832932e-02  4.58159409e-02]
 [ 4.27024178e-02  3.75661701e-02  5.55592077e-03  1.28680309e-02
  -3.37159932e-02 -4.97569679e-04  6.40207762e-03  8.36247765e-03
   4.02774587e-02 -4.42205258e-02 -5.14491796e-02 -3.66583109e-01
   4.03630957e-02 -4.20195088e-02 -7.50678331e-02 -2.58693080e-02
  -3.84425628e-03  3.87623087e-02 -4.43646945e-02 -6.63160859e-03
  -1.49655137e-02 -2.84192860e-02 -3.24810552e-03 -4.09295745e-02
   1.05343260e-01  1.23867400e-01 -3.57677117e-02 -2.21303806e-01
   7.94596318e-03  2.28563600e-04 -1.87517479e-02  5.61550409e-02
   2.08832733e-02  3.09642367e-02 -5.06871305e-02 -2.48530676e-04
  -1.02661796e-01 -4.84352037e-02 -2.04091538e-02 -8.36393759e-02
  -1.40095465e-02 -4.52872440e-02  7.86199048e-02 -5.52812545e-03
  -1.37653612e-02 -2.14746386e-01 -1.66078601e-02  7.39830434e-02
  -1.94760397e-01 -5.57788275e-02 -2.43837833e-01 -1.64275263e-02
  -3.13187130e-02 -3.22393440e-02 -2.06099246e-02 -3.96456942e-02
   6.73228176e-03  4.38873731e-02  1.60113368e-02  2.23086355e-03
  -1.93740264e-01 -4.23342809e-02 -3.37231383e-02  8.25324580e-02
   2.82473080e-02 -3.96906808e-02  4.04513367e-02 -1.14654629e-02
   8.86436701e-02  1.36813577e-02 -1.01893861e-02 -4.69899662e-02
  -3.23715359e-02 -2.17231780e-01 -1.53200375e-02 -7.24244267e-02
   5.36700413e-02  4.95789498e-02  3.49856615e-02  8.04759935e-03
  -4.42772778e-03 -5.54821901e-02 -4.78762528e-03  1.64432116e-02
   2.12442651e-02 -2.05840245e-01 -4.48512658e-02  6.67869439e-03
   1.04572885e-02 -8.67232978e-02 -9.94371399e-02  1.38131574e-01
  -1.25424623e-01  3.73980440e-02  2.86377259e-02  5.74496984e-02
  -1.39821693e-02  1.09497845e-01  7.41867200e-02  5.30220987e-03
  -2.10335881e-01 -5.44461571e-02  1.26167806e-02 -1.13800187e-02
  -1.45788968e-01  2.33188555e-01 -1.89076722e-01  1.23802572e-02
  -4.95903157e-02 -2.05118973e-02  1.59832593e-02  1.49853140e-01
  -1.85201298e-02  1.18998885e-02 -5.99192083e-02  1.15963770e-02
  -1.68949738e-02  7.78231546e-02  3.92121300e-02 -4.23582867e-02
   5.95556423e-02 -1.02586873e-01 -1.07151970e-01 -3.48133072e-02
   1.68513097e-02  1.88970435e-02 -2.04757154e-02  4.14629467e-02]
 [-5.65552264e-02 -3.60319242e-02  3.65118049e-02 -2.13297661e-02
  -6.28623739e-02 -3.05059478e-02  4.43916954e-02 -5.84918186e-02
  -9.52761061e-03 -4.57814522e-02 -4.76835892e-02  7.86406826e-03
  -5.35305701e-02  9.32980329e-03 -4.29327488e-02 -5.15289828e-02
  -1.40236402e-02  1.95009355e-02  7.85843357e-02 -5.01076728e-02
  -5.77206500e-02 -3.96291539e-02 -6.63634911e-02 -1.13875447e-02
  -1.27303619e-02 -6.00495003e-02 -3.25405709e-02 -9.56878737e-02
  -9.91412066e-03  2.07303464e-02  9.38489754e-03 -4.47134860e-02
  -4.96953614e-02 -1.88956782e-02 -2.58983765e-02 -1.21712023e-02
  -1.79964714e-02 -9.76941139e-02  3.61449760e-03 -6.89495280e-02
   2.15526149e-02 -2.26199832e-02  2.90819593e-02  2.31618956e-02
  -6.84241438e-03  8.80279317e-02 -1.40599988e-03  3.77453282e-03
  -1.48784518e-01 -2.55688895e-02  4.95987572e-02 -8.08640346e-02
   2.81539187e-02  2.03005783e-02  3.01708169e-02  2.02389807e-02
  -2.82498728e-02 -2.99051907e-02 -1.98832601e-02  2.07112310e-03
  -2.47735213e-02 -5.74211553e-02  5.19407447e-03  2.18313877e-02
  -4.37280685e-02  3.83536220e-02  1.03412755e-02 -2.32533757e-02
  -1.29854679e-01  1.64544079e-02 -3.16986851e-02  1.66212376e-02
  -2.30434444e-02  4.33073640e-02  3.42046912e-03 -7.38399103e-02
   1.19162770e-02  2.31577326e-02 -2.23989151e-02  2.98872869e-02
   1.16691291e-02 -4.56544571e-02 -2.22867746e-02 -5.05401529e-02
  -1.10260397e-02  3.81787568e-02  3.41305993e-02 -3.00434604e-03
   8.23870525e-02 -1.51284048e-02 -1.51085742e-02  2.25897580e-02
   6.10664599e-02 -3.83297354e-02  1.48255029e-04  2.26300191e-02
   9.85281658e-04  4.98157227e-03 -1.61020402e-02  1.88500751e-02
   1.26259094e-02  4.29648496e-02 -4.53383252e-02  3.52769345e-02
   9.02550668e-02  3.05150617e-02 -1.56967025e-02  9.30218864e-03
  -1.31293917e-02 -4.35902439e-02 -3.00213974e-02 -2.05805693e-02
  -3.40777077e-02 -2.93540563e-02 -3.11427563e-02  3.14678475e-02
  -6.12595119e-02 -2.87531521e-02  2.41297204e-03  3.01659219e-02
  -1.21904528e-02  3.94651406e-02  1.16974982e-02  9.26306564e-03
  -8.00152421e-02  5.38219102e-02 -1.36570120e-02  1.65975746e-02]
 [-7.45252706e-03 -3.95222120e-02  4.13513836e-03  4.85621616e-02
  -4.64960327e-03 -3.54215987e-02 -1.69688929e-03  6.27377676e-03
  -7.06464425e-02  1.38607388e-02  1.68915037e-02  1.04677128e-02
   3.52053829e-02 -2.51996294e-02 -5.37844785e-02 -3.80299017e-02
  -1.51306773e-02 -7.82186761e-02  1.48918480e-02  2.49577481e-02
  -4.94350074e-03 -7.89605454e-02 -3.33486646e-02 -8.52331743e-02
   4.23107818e-02 -9.24407020e-02 -7.71923065e-02  1.01087978e-02
  -4.12133522e-02 -5.90277053e-02  5.04529551e-02  2.98176073e-02
  -5.35550006e-02 -3.44309770e-02 -4.69096713e-02 -2.81768627e-02
   8.02510530e-02  2.21660603e-02 -5.62896766e-03  2.28219386e-02
  -4.83600870e-02 -5.24392389e-02 -5.93208000e-02 -6.48787692e-02
  -6.14949465e-02  1.45850787e-02  1.14026666e-02  1.98722109e-02
   4.64447811e-02  6.62592500e-02  1.10373899e-01  3.20650414e-02
   2.12250520e-02 -2.67830808e-02  3.30971330e-02  6.29000068e-02
   1.12952650e-01 -3.60716097e-02 -3.38375159e-02  4.85710725e-02
   1.29388899e-01  1.17964880e-03  1.25614833e-02  2.79784445e-02
   7.15963123e-03 -2.23236419e-02 -1.34888450e-02  3.41022834e-02
   1.71406213e-02 -5.33539578e-02  1.26769608e-02 -3.52194235e-02
   3.56542282e-02  1.39005676e-01 -4.01058197e-02 -8.88722315e-02
  -1.63447170e-04 -5.07790931e-02 -1.75856519e-02  4.88082580e-02
   3.29352729e-02 -1.41637456e-02 -6.04287609e-02  4.86907028e-02
   2.21130941e-02  6.09078556e-02  2.94284578e-02 -3.88529487e-02
  -7.23996460e-02  4.26317677e-02 -2.13577086e-03  1.59664229e-02
   1.12361319e-01 -9.21078399e-03 -2.02360526e-02 -6.02813263e-04
   5.21676987e-02 -2.23634355e-02 -9.11474973e-02  3.54759991e-02
  -4.58073504e-02 -6.54438809e-02  7.58490176e-04 -6.51378334e-02
  -1.71655416e-01 -2.11671546e-01  4.54559326e-02  5.34201227e-02
  -5.96675053e-02  4.24543284e-02  3.79592031e-02  8.67899600e-03
  -4.53512929e-02  1.55466581e-02 -7.67997280e-02 -2.02876441e-02
   5.51489703e-02 -9.55045670e-02  2.71326136e-02  4.60987203e-02
  -4.04596627e-02  4.58505377e-02  1.08968489e-01  1.28273703e-02
  -1.46349762e-02 -4.75439206e-02  1.71274284e-03 -1.32910581e-02]
 [ 4.84106019e-02  2.07966492e-02  1.62356079e-01  1.95083618e-02
   2.50474527e-03  4.11201827e-02 -2.62595266e-02 -3.43063772e-02
  -1.35526462e-02  9.79913399e-03  2.07198374e-02 -1.73817411e-01
  -2.50838976e-02 -2.48269122e-02 -2.28831824e-02 -1.17151802e-02
   1.95000449e-03 -6.79120198e-02  4.46414277e-02 -1.58107560e-02
   2.35635471e-02  1.75459646e-02  3.99312340e-02  2.62338240e-02
   1.55313341e-02  7.87381604e-02  1.46586346e-02  1.64809506e-02
   5.18442364e-03 -7.27230757e-02  2.65320037e-02  1.06894579e-02
   2.24951864e-03 -3.68998162e-02  2.05537174e-02  5.05255572e-02
   6.44012764e-02 -1.09308943e-01 -1.08796591e-02 -6.45468235e-02
  -3.83993872e-02 -7.79233500e-02  3.91465006e-03 -6.28192350e-02
   5.68816699e-02 -1.06910609e-01 -1.06455304e-01  5.56751937e-02
   6.46883845e-02 -4.26677689e-02 -7.58197904e-02 -7.75950328e-02
   2.34087743e-02  2.19547972e-02  4.94094677e-02 -2.83041783e-02
  -3.64197493e-02 -6.49436116e-02 -6.16386086e-02  3.03537678e-03
   6.50787503e-02  4.00460698e-02 -3.76125984e-02  1.27993301e-01
   1.87326908e-01 -5.81403449e-02 -6.05950542e-02 -9.40495916e-03
  -8.26844200e-02  2.26382185e-02  5.25746495e-02  2.55001392e-02
  -1.73234437e-02 -2.67924905e-01  3.03612184e-02  3.88485715e-02
  -2.41972879e-02  2.39157360e-02 -6.89127743e-02 -3.79850455e-02
  -1.08336071e-02 -5.37074432e-02  1.12349048e-01  6.99713128e-03
  -6.14780225e-02  1.77384708e-02  2.55033616e-02  4.82798591e-02
  -5.01588359e-02 -7.21188560e-02 -2.63307303e-01  9.99041870e-02
  -1.47632018e-01 -3.46840471e-02 -1.63711049e-02  1.17399124e-02
   7.42487900e-04 -3.96227539e-02  1.86365992e-01  1.52187143e-02
   8.92258286e-02  8.39863997e-03  4.66928855e-02  5.02960086e-02
  -1.46450046e-02  4.41982113e-02 -5.04557788e-02  2.99620349e-02
  -1.50850536e-02  8.52040499e-02 -1.08972462e-02 -8.97234157e-02
  -5.48765659e-02  7.25759640e-02  1.11237271e-02  1.27318082e-02
  -5.92036918e-02 -4.16206568e-02  1.03142369e-03 -2.48128846e-02
   3.11930031e-02  6.82754293e-02 -1.38292909e-01  3.90462130e-02
   9.81000662e-02  2.95510702e-02 -1.09278951e-02 -4.95233834e-02]
 [-2.71258946e-03 -4.70675640e-02  8.76059011e-02 -5.38126007e-02
   1.47217968e-02 -1.95647161e-02 -1.05229437e-01  8.98472145e-02
  -5.31940758e-02  1.35956155e-02 -1.36647290e-02 -6.99408278e-02
   9.19010304e-03 -2.61422228e-02 -2.76284236e-02 -1.62359718e-02
   3.57166752e-02  1.42293507e-02  8.90531763e-02 -2.02934463e-02
   3.09747420e-02  4.98432443e-02 -2.19386332e-02 -4.22479026e-02
   1.33780405e-01 -7.23664090e-02 -5.97125068e-02  6.72722533e-02
  -2.08604732e-03 -4.83641140e-02  5.15361838e-02 -3.77778113e-02
  -7.12598092e-04  5.90839842e-03 -5.21194264e-02  5.86237684e-02
   2.56303042e-01 -2.46675685e-02  2.95471232e-02 -3.54056954e-02
  -4.24985774e-02 -5.08617610e-02  4.45046388e-02  3.74107584e-02
   4.02752496e-02 -5.70607521e-02 -2.28686538e-02  6.29708404e-03
   4.16016914e-02 -1.80046335e-01 -1.02407992e-01  1.29499212e-01
  -4.73609753e-02 -4.71062027e-02  5.74630336e-04  3.12982015e-02
  -1.77036151e-02  4.44295816e-03  8.69226363e-03  1.07602170e-02
   1.09597631e-01 -1.69545587e-03 -7.67654404e-02  1.54044941e-01
   1.57509640e-01  3.62836272e-02  3.23760100e-02 -3.12341731e-02
   1.10225253e-01  4.01394628e-02 -4.48586717e-02  1.44370655e-02
  -2.92272605e-02 -1.30428597e-01 -6.66387156e-02 -1.86708793e-02
  -3.19707976e-03 -2.80495491e-02 -3.78726758e-02 -7.50755565e-03
   8.84629879e-03 -1.91931035e-02  8.88085142e-02  3.53743359e-02
   1.27678467e-02 -8.57591107e-02 -1.93306729e-02 -3.26444618e-02
  -2.25572586e-02 -8.48136842e-02 -7.10527319e-03  1.28833801e-01
   1.38253942e-01 -1.62521761e-03  3.49715836e-02 -4.72489744e-02
  -1.63346648e-01  6.48886245e-03 -4.02514897e-02 -5.99401593e-02
  -4.42033410e-02 -2.19077673e-02 -7.80821312e-03  3.00955083e-02
   3.14537659e-02  9.93522704e-02 -2.63767615e-02  3.48712765e-02
  -7.05686659e-02 -2.01338585e-02  1.42105222e-02  1.21918442e-02
  -2.93855630e-02 -6.59435168e-02  4.14380692e-02 -1.44798737e-02
  -3.71654965e-02 -3.00789885e-02  3.28953639e-02  2.29601376e-02
   3.56305274e-03  1.13275990e-01 -8.50717351e-02 -2.80999206e-02
   5.26475310e-02  7.13775773e-03  1.84564516e-02  5.60058374e-03]
 [ 4.41670120e-02  6.19365945e-02 -2.17767507e-01  1.01697706e-01
  -5.37428111e-02  3.43073756e-02  8.05646628e-02 -1.61444902e-01
   5.35081215e-02  2.49922462e-02  1.38972430e-02 -7.90818632e-02
  -2.01035980e-02 -6.03013374e-02 -1.55246267e-02 -1.41661977e-02
  -2.10558232e-02  1.41690783e-02 -8.37467536e-02 -3.53435278e-02
  -1.98407192e-02  4.89810889e-04 -1.27508119e-02 -6.08832315e-02
  -1.19351648e-01 -4.52624746e-02  3.56928445e-02 -4.73031923e-02
   2.11926978e-02  6.49027713e-03 -4.49222140e-02  4.45981845e-02
   5.05140498e-02  1.00647165e-02 -2.92612594e-02 -1.88754201e-02
  -3.43519412e-02  2.42216028e-02 -2.13337280e-02  2.57149078e-02
   3.34141739e-02 -3.07710264e-02 -4.33279946e-02 -1.95881538e-02
  -2.51726643e-03  1.13332674e-01  2.17733532e-02 -2.40093600e-02
  -3.96145843e-02 -9.00856033e-02 -3.74697559e-02 -1.27912918e-03
   5.06155193e-02 -4.32253070e-02 -5.84667809e-02 -2.83503830e-02
  -9.79881361e-02  2.43139397e-02 -5.81023702e-03  3.36342566e-02
   3.39304879e-02  1.26685640e-02  3.84968929e-02 -4.13309075e-02
  -7.74594918e-02  5.11115091e-03 -1.30347721e-02  1.24342553e-02
   6.35751933e-02  5.02441339e-02  1.57582154e-03 -1.63959451e-02
  -5.17964214e-02 -2.42787693e-02 -4.37869653e-02 -8.75983462e-02
  -7.82359298e-03 -2.25859340e-02 -5.35630435e-02 -5.30952103e-02
  -6.13945909e-02 -1.57368537e-02 -8.75994116e-02 -3.03601529e-02
  -6.44837040e-03  8.49449486e-02  4.31389585e-02 -1.82635579e-02
  -2.55352389e-02  5.11381365e-02 -2.22176965e-03 -2.65345033e-02
  -6.44153282e-02 -2.39550956e-02  4.17541265e-02  6.01858040e-03
  -2.54212040e-03 -5.06191403e-02 -1.44767523e-01 -5.73384203e-02
  -8.92070085e-02  3.48045826e-02 -3.48764099e-03 -3.98388803e-02
   2.24595182e-02 -1.85609967e-01  1.00092925e-01  6.96106255e-02
  -4.05212305e-02  6.28886223e-02 -1.09103536e-02  5.51175587e-02
   1.26169045e-02  3.75499688e-02  1.38350902e-02  4.19247374e-02
   2.88012046e-02 -3.07396315e-02  8.46531522e-03  2.44317763e-02
  -1.30966315e-02  8.73026550e-02  4.21967916e-02  3.75751704e-02
   8.49851742e-02 -6.90184757e-02 -5.45655983e-03  3.53610776e-02]
 [ 2.45419834e-02  5.08538857e-02  2.65281439e-01 -1.47865787e-02
  -3.42678726e-02 -3.13954242e-02  1.26828253e-01  1.24641538e-01
  -6.84547350e-02 -5.59691191e-02 -5.06062433e-02 -1.56846538e-01
  -3.93032134e-02 -1.30267218e-02 -2.58395970e-02 -4.66514453e-02
  -2.68821642e-02  4.03647125e-02  2.46529970e-02 -5.00785336e-02
   9.32547543e-03 -3.47202085e-02 -4.34099743e-03 -5.00918515e-02
   1.38916180e-01 -1.95573028e-02  1.09187607e-02 -1.98108666e-02
  -4.53048050e-02 -2.48221960e-02 -4.11217809e-02  2.63177548e-02
   4.60353121e-03 -5.86052239e-02  6.48145471e-03 -3.07531375e-02
   1.09311610e-01 -5.09107392e-03  4.41088267e-02  2.19262987e-02
  -1.13631813e-02  2.45571733e-02 -6.83339611e-02 -1.31089790e-02
  -7.20012635e-02 -2.59724528e-01 -6.64722174e-02  5.43217547e-02
   3.75334844e-02 -1.53883338e-01  2.42044255e-02  1.53148156e-02
  -2.05983091e-02  3.21337506e-02 -5.05270399e-02  3.08795348e-02
  -2.06229016e-02  1.40178679e-02  2.18235366e-02  3.11766043e-02
   2.99217440e-02  4.81811687e-02 -2.64624506e-02  2.44492292e-02
   1.39498413e-01  3.37703563e-02 -4.54849601e-02 -1.61281638e-02
   2.39840094e-02 -4.28397246e-02 -5.75553328e-02  4.46649119e-02
  -3.37244570e-02 -1.79509521e-01 -2.22600885e-02  4.76433076e-02
   1.05104074e-02  3.13641727e-02 -3.63710150e-02  6.68380857e-02
   1.28512420e-02  2.24386100e-02  1.89713523e-01 -3.15737762e-02
   5.15714847e-02 -1.03803366e-01  8.36122502e-03  7.81628862e-02
  -1.06527157e-01 -6.40713573e-02 -1.68705314e-01  5.99056482e-02
  -5.08233085e-02 -1.46555703e-03  7.29230568e-02  3.52913104e-02
   1.78589121e-01  7.05526024e-02  1.23998210e-01 -2.88656866e-03
   1.83316246e-01 -3.40462252e-02 -4.09054793e-02  1.04008606e-02
   5.77513967e-03  1.51416734e-01 -8.38233083e-02  2.17867400e-02
   9.91860870e-04 -7.82064795e-02  4.96601574e-02 -8.95585492e-02
  -1.51247084e-02 -3.24796923e-02 -4.48292941e-02  1.75497029e-02
  -2.62985174e-02  8.86415970e-03 -3.39799523e-02 -5.37977219e-02
   3.97239141e-02  6.37440830e-02 -1.05775520e-01 -3.02012116e-02
   7.02728108e-02  3.86096165e-02  3.36804353e-02 -3.84339318e-02]
 [-6.16954826e-02  2.00030468e-02  1.60348695e-02  5.23291202e-03
  -1.27547132e-02 -4.85905670e-02  3.81759517e-02 -7.10714534e-02
   2.40554810e-02 -4.45276946e-02  2.57273316e-02 -2.95291422e-04
  -6.59563616e-02 -5.44901192e-02 -4.35000425e-03 -2.28455886e-02
  -2.88411546e-02 -1.88729763e-02  3.23211737e-02 -2.16940101e-02
  -5.80397481e-03  2.97063123e-02  3.46478820e-03  2.35286839e-02
  -3.61799747e-02 -2.27767304e-02 -2.70917062e-02 -1.22956755e-02
  -5.26050925e-02 -4.01136912e-02 -1.02185244e-02 -4.89808694e-02
  -5.24912663e-02 -2.08143331e-02 -3.60007398e-03  3.84820290e-02
  -1.66289136e-02 -7.97608346e-02 -6.44747987e-02  6.95506064e-03
  -6.13078848e-02 -2.14886386e-02  6.07284084e-02 -2.79498342e-02
  -4.46614847e-02  5.84415123e-02 -6.86358958e-02 -2.62595247e-02
  -3.12171113e-02 -6.15261011e-02 -1.74350273e-02 -5.58769964e-02
   3.51996198e-02  4.62770695e-03  6.81725563e-03 -3.42561640e-02
  -9.12109837e-02  2.22401065e-03  3.14492248e-02  2.63997205e-02
   1.78236328e-02 -4.27931584e-02  2.23787799e-02 -2.40568779e-02
  -8.34658816e-02 -3.04288920e-02 -2.53375955e-02  2.74798032e-02
  -5.72585389e-02  1.07172886e-02  4.31665685e-03 -4.58893478e-02
  -5.25777526e-02  1.77516323e-02  4.59914878e-02 -8.19540620e-02
  -2.21802462e-02 -5.99481612e-02 -2.93679861e-03 -6.80759847e-02
  -9.50365979e-03 -3.40645276e-02 -2.18073577e-02  3.76380533e-02
   1.24444924e-02  4.22128569e-03 -4.80132736e-02  8.76437780e-03
  -2.73656938e-02 -1.28719006e-02  4.33282787e-03  1.16292611e-02
  -4.63423878e-03  4.90223728e-02 -7.75053259e-03 -3.28686796e-02
   2.40241289e-02  4.27833700e-04  5.58384545e-02 -2.50958800e-02
   4.93259840e-02  7.56797241e-03 -1.17924139e-02  3.74850929e-02
   4.30442542e-02 -6.96307644e-02 -3.88668180e-02 -3.19291390e-02
  -4.54139411e-02  5.44823445e-02 -4.12257165e-02 -7.78489746e-03
  -2.98229493e-02  4.02324926e-03 -1.64994057e-02  2.00918652e-02
  -5.98639324e-02 -9.77396443e-02  5.55632077e-02 -5.41766025e-02
  -4.33804616e-02 -8.64282716e-03  2.21270835e-03 -1.97994169e-02
  -8.98768660e-03  9.06902030e-02  1.83449630e-02  1.65211521e-02]
 [-4.04995754e-02 -3.84704359e-02  1.58296041e-02  7.11299293e-03
  -2.94752959e-02 -5.78303672e-02 -5.81126064e-02  6.03889264e-02
   4.17929478e-02 -9.19551123e-03  1.21076335e-03  1.25536136e-02
  -7.00442633e-03 -1.66851338e-02  2.35651731e-02 -2.58713681e-02
  -9.69329178e-02  2.21853592e-02 -1.35499403e-01  8.42672586e-03
   4.56969161e-03  2.85804290e-02  3.76421139e-02 -1.05550140e-01
  -5.36694899e-02 -1.27375081e-01 -5.75504825e-03  2.11748816e-02
   2.69966237e-02 -4.58732340e-03  4.36311923e-02 -6.30059242e-02
   3.68121788e-02 -4.24940735e-02  7.43398024e-03  1.45744462e-03
   7.47934170e-03 -3.50554138e-02  3.49671356e-02  5.62479869e-02
   3.16716474e-03 -4.98987138e-02 -7.48489797e-02  1.41442316e-02
   8.43364224e-02  1.15745433e-01 -1.71062201e-02  1.12844646e-01
   5.06534427e-02  1.35143548e-01  4.29881848e-02 -3.55723873e-02
  -1.04949325e-02 -6.40106648e-02  3.33335698e-02 -1.97100136e-02
   5.62643334e-02 -8.21775757e-03 -2.38798205e-02 -1.12498440e-02
   1.04158655e-01 -5.12802713e-02  4.88233417e-02  1.95796192e-02
  -6.15344057e-03  2.77129523e-02 -4.18033488e-02 -1.52553096e-02
   8.87751300e-03 -6.01361282e-02  2.09205821e-02 -2.95534376e-02
  -4.16344181e-02  2.42905300e-02  3.64577360e-02 -5.03942631e-02
   6.30010199e-03 -6.40960112e-02 -1.64476223e-02  1.16272718e-02
  -3.51273343e-02  5.28434999e-02 -2.44502369e-02  2.29379274e-02
   6.03538333e-03 -3.88994478e-02 -2.42216270e-02  2.54014302e-02
   2.68978458e-02  9.13283527e-02  2.05680802e-02  7.06851482e-02
  -3.25085130e-03  3.00647728e-02 -1.45815229e-02 -2.55354941e-02
  -2.05214601e-03 -1.26539439e-01 -4.79414538e-02 -2.69470587e-02
  -1.06769584e-01  4.47852723e-02 -1.69937611e-02  5.11128381e-02
  -1.39157206e-01 -2.47271717e-01  1.04880631e-01  1.61635596e-02
   1.53218769e-03  3.61664221e-02 -2.99996175e-02  2.56889295e-02
   1.51750457e-03  5.12118749e-02 -3.66039686e-02 -4.05709147e-02
  -3.86084965e-03  4.21850085e-02 -8.96027684e-03 -6.23546690e-02
   1.18893664e-02  1.07412890e-01  9.88415629e-02 -1.77658927e-02
  -6.39307350e-02  9.28983763e-02  7.21270824e-03 -2.93640271e-02]
 [ 4.37729806e-02 -5.74723333e-02  5.39689288e-02 -8.08456019e-02
   2.13413797e-02  1.02609452e-02  2.79499106e-02  1.45253139e-02
   4.01740931e-02  2.44209301e-02 -7.49772340e-02 -8.96323249e-02
  -2.47937627e-03 -8.85968059e-02 -4.11542580e-02  2.97718076e-03
  -4.08577695e-02 -1.00805778e-02  7.39728510e-02  2.01719739e-02
   5.51858693e-02  3.27636451e-02  3.56316790e-02 -2.42920369e-02
   5.43815829e-02  7.80004039e-02 -1.55877899e-02 -1.21931331e-02
   1.91016626e-02 -5.60276620e-02 -6.64295349e-03 -6.71789423e-02
  -5.36408797e-02  3.64816934e-02  5.22754416e-02 -5.62881157e-02
   4.59805839e-02 -7.40709677e-02  1.15146367e-02 -3.34219933e-02
   6.63276911e-02 -1.42344534e-02 -7.44320154e-02 -1.03097059e-01
  -7.76266530e-02 -1.76940754e-01  3.90361287e-02 -9.34378803e-03
   4.44060825e-02 -1.10808849e-01  2.08015982e-02 -4.47110236e-02
  -5.67467287e-02 -7.54561499e-02 -5.22178374e-02  9.02771652e-02
  -2.39951879e-01 -4.29164211e-04  7.07308529e-03  2.38543712e-02
   8.07991475e-02  4.12270837e-02  1.63378287e-03 -1.76517323e-01
   2.50102460e-01 -1.48468679e-02  7.68230110e-02 -2.41724644e-02
  -3.96934934e-02  2.45217830e-02  5.96074993e-03  9.79257456e-05
  -2.26590354e-02 -2.47122496e-01  1.24833934e-01 -2.05293130e-02
  -1.44612174e-02 -5.20840548e-02 -4.83174548e-02  2.49906499e-02
   1.86193008e-02 -1.30450595e-02  9.93287787e-02 -5.55105098e-02
  -3.85732502e-02 -1.07764579e-01 -1.61918718e-02 -2.10910644e-02
  -7.43108988e-02  9.65445861e-03 -8.02292973e-02  2.82602683e-02
  -1.24743715e-01 -1.66948922e-02 -5.23184389e-02 -2.37822253e-02
   2.54071921e-01 -8.28632340e-03  1.39929608e-01 -2.07088701e-02
   5.89672923e-02 -9.40412935e-03 -6.62429482e-02 -2.29800474e-02
   1.94959920e-02  1.25523105e-01 -2.05610041e-02  2.11523753e-02
  -2.71259453e-02 -4.46299314e-02 -2.76655722e-02 -4.61963005e-04
  -2.25469079e-02 -4.41736877e-02 -2.22680513e-02 -1.51731940e-02
   3.44424807e-02 -6.18853569e-02  1.61853880e-02 -3.26893888e-02
  -5.33376634e-02 -2.12998129e-02 -1.03649430e-01 -3.98501344e-02
   9.66601297e-02 -2.00163350e-02  1.62667967e-02  2.87038051e-02]
 [-4.92862286e-03 -2.15238687e-02 -1.67097636e-02 -1.76756725e-01
  -4.84285764e-02 -3.79555449e-02 -1.16577588e-01 -8.26039910e-02
  -5.64543977e-02 -5.70854321e-02 -2.97867097e-02 -4.96972613e-02
   7.28759617e-02 -4.92573380e-02  2.98397001e-02  3.57299037e-02
   2.14751177e-02 -6.37200475e-02  1.37126997e-01  5.78657538e-02
  -6.33648597e-04  1.57217849e-02 -4.31758948e-02 -8.39725416e-03
   1.84167802e-01 -3.34320255e-02 -4.04309668e-02  8.78991932e-03
   4.86590452e-02  3.21621774e-03 -7.27182953e-03 -2.14129011e-03
  -1.29579064e-02  1.67557318e-02 -1.95325725e-03  1.30711002e-02
   2.40218472e-02 -1.04765687e-02 -6.85526431e-02 -4.49514501e-02
  -2.48533450e-02 -4.09160703e-02  8.60813558e-02  3.64060737e-02
   3.81225185e-03 -1.42986089e-01 -2.47933306e-02  1.18395135e-01
  -5.38689345e-02 -3.01422141e-02 -1.10138655e-01  4.89157028e-02
  -4.82538119e-02 -2.82413997e-02  4.67490703e-02  4.82729003e-02
  -7.12126587e-03  1.98571291e-03  9.12816171e-03  3.75817083e-02
   1.65702984e-01 -2.55768728e-02 -2.93679480e-02  9.41380337e-02
  -7.33191445e-02 -9.41096619e-03 -6.28155991e-02 -5.54954149e-02
   1.19736545e-01  4.52011339e-02  3.24596488e-03 -4.60188314e-02
  -3.65757127e-03 -1.60059646e-01 -9.13698822e-02 -1.27103534e-02
  -4.12812270e-02 -5.01977690e-02 -7.60242417e-02 -2.84261839e-03
  -5.31719737e-02  5.33487909e-02 -4.51708697e-02 -4.09302413e-02
   5.03371172e-02 -4.36487459e-02 -2.41697021e-02 -5.92530854e-02
   1.25683621e-02 -1.20714959e-02 -1.30024865e-01  1.83163181e-01
  -1.16816111e-01 -5.56692258e-02 -5.09175807e-02  4.22882475e-02
  -1.26880268e-03  3.03609092e-02 -7.67984912e-02  5.11290543e-02
  -5.81290647e-02 -4.87776194e-03 -3.13561931e-02 -4.50484119e-02
  -9.53986198e-02  1.66636199e-01  2.34940257e-02  1.37402177e-01
   5.93108358e-03 -1.98657855e-01 -1.50575191e-02  7.54273981e-02
   4.38103154e-02 -3.65585834e-02  2.10375786e-02 -2.87295505e-02
   2.24731527e-02 -4.78743017e-02  4.00531106e-02  3.01228277e-02
  -2.94929724e-02  3.78706269e-02  2.34732926e-02  1.40970922e-03
   2.50988938e-02 -4.89765517e-02 -3.74794006e-02  1.89676862e-02]
 [-5.18363379e-02 -5.36842756e-02 -2.25445449e-01  5.65358996e-02
  -4.29681242e-02 -1.05240028e-02  1.65403020e-02 -8.64751637e-02
  -1.78400613e-02 -5.31019196e-02 -5.03953695e-02  5.30473283e-03
  -2.36024689e-02 -6.38463944e-02 -4.96312268e-02  7.47779617e-03
  -1.28106698e-02 -5.28289266e-02 -1.22148551e-01  3.34191732e-02
  -3.65882888e-02  3.04700192e-02  8.78433790e-03 -3.73793058e-02
  -4.68289815e-02 -2.58243121e-02 -3.23980972e-02 -6.36444911e-02
   6.89295819e-03 -1.79865472e-02  4.45634089e-02 -2.90156063e-02
  -5.68960533e-02 -1.67150274e-02 -4.12343442e-02 -6.97610825e-02
  -9.03645880e-04  1.64417457e-02  3.02329883e-02 -4.88217734e-02
   3.27105336e-02  2.44871527e-02 -8.59344658e-03 -1.22407675e-02
  -1.98015217e-02  8.93266127e-02 -4.88970652e-02 -2.55093016e-02
  -7.05383047e-02 -1.51992347e-02 -1.76387541e-02 -5.78286052e-02
  -8.83527845e-03  4.38754559e-02 -5.26696220e-02 -6.16950989e-02
  -9.37037468e-02  4.52770758e-03 -5.91364736e-03  2.50622965e-02
   1.92243233e-02 -2.25549042e-02 -1.98901328e-03 -4.36029062e-02
   4.56309645e-05  3.26613858e-02 -4.03252281e-02 -4.60786559e-02
   8.41275156e-02  4.53605913e-02 -2.67279614e-02 -2.37377584e-02
  -4.93047275e-02 -6.29320145e-02 -1.37862459e-01  4.03985992e-04
  -6.87762722e-02 -4.03677765e-03 -2.63443217e-02 -6.04727902e-02
   2.39867847e-02 -2.40586679e-02 -8.07489678e-02  3.44541529e-03
   1.29946619e-02  2.00508498e-02  1.20269656e-02 -4.52939868e-02
  -6.05919808e-02  8.51985216e-02  3.94233577e-02 -8.15414786e-02
  -2.71933191e-02  2.27147900e-02  2.89885867e-02 -5.31331375e-02
   6.06268607e-02 -2.01500002e-02 -2.09445521e-01 -1.25502120e-04
  -1.38688937e-01 -1.30742742e-02 -1.08108930e-02 -6.38031960e-02
  -7.36068189e-02 -3.44071165e-02  5.80491014e-02  9.35779363e-02
  -3.49569321e-03  9.30366665e-02  3.75565328e-02  7.69989565e-02
  -1.29454210e-02  3.15280706e-02  2.10760571e-02 -3.40786986e-02
  -5.17905951e-02 -3.55475545e-02  8.77549965e-03  2.24027373e-02
   9.30508540e-05  1.42201707e-01 -1.00955948e-01 -5.10118380e-02
  -2.21908297e-02  4.05188687e-02  1.46524282e-02 -5.64605817e-02]
 [-3.93949673e-02 -7.69202411e-03  1.04408443e-01  9.90864858e-02
  -2.76446044e-02 -1.37819480e-02  2.22531483e-01  1.06481604e-01
  -4.91830930e-02  3.61902863e-02 -1.53950863e-02 -2.39916414e-01
  -4.68541682e-02  3.46984603e-02  9.93744005e-03  1.26562556e-02
  -3.43251601e-02  1.96264889e-02 -6.97107464e-02 -3.10366489e-02
   7.36272559e-02 -5.46701401e-02  3.17173405e-03 -3.01640294e-02
   2.38746330e-02 -1.97966658e-02 -7.63494447e-02 -7.72780180e-02
  -4.09701504e-02 -4.38378938e-02  4.57559824e-02  5.23222834e-02
   7.00523481e-02  1.95871256e-02 -3.90562117e-02 -4.32727225e-02
   5.62604070e-02  7.86892325e-03 -9.87115055e-02 -3.82450223e-03
  -2.75684893e-02 -2.23298464e-02 -2.28087660e-02 -2.65891179e-02
  -1.75169453e-01 -1.67978093e-01 -4.80863787e-02 -6.22599050e-02
   6.64174557e-02 -7.08288848e-02 -1.01336285e-01 -2.66488399e-02
  -9.07840431e-02 -2.30058767e-02 -1.88128259e-02  5.60859498e-03
  -2.49465197e-01 -5.68281263e-02 -5.75059466e-03 -7.01809824e-02
  -1.43713489e-01  3.17095630e-02 -1.05928686e-02 -1.19066127e-01
   8.99584144e-02 -3.28864716e-02  6.62597418e-02 -7.01228380e-02
   2.08392471e-01  5.40615283e-02 -3.83048728e-02  4.94755059e-02
  -7.27523342e-02 -1.89696684e-01 -1.06589861e-01 -2.53283884e-02
  -2.31959559e-02 -5.93783632e-02 -5.33423238e-02 -1.67029686e-02
   3.62396725e-02  6.53630719e-02  2.09131062e-01  1.64714716e-02
   2.13865340e-02 -5.44007272e-02 -6.97710365e-02  4.89361286e-02
  -1.46891614e-02 -1.83221161e-01 -1.96116537e-01  1.12923816e-01
  -2.18698114e-01  6.78679198e-02  1.33485142e-02 -4.73485924e-02
   9.58166271e-02 -7.19897076e-03  6.81436732e-02 -6.56512100e-03
   4.32323217e-02 -2.06121970e-02 -6.08921386e-02  6.39130846e-02
  -4.78099436e-02 -1.73537545e-02 -2.41288155e-01 -8.26621428e-02
  -9.40175578e-02  2.48336066e-02 -2.58449931e-02  2.75220480e-02
  -7.43118674e-02  1.51425423e-02  5.71228145e-03  2.17142235e-02
   3.49049130e-03  1.17645025e-01  6.69522909e-03 -3.37864980e-02
  -5.29066846e-02  1.99142992e-02 -8.11988339e-02 -5.84577024e-02
   1.53115600e-01 -3.62076797e-03  2.96552628e-02 -7.02678934e-02]
 [-4.16740291e-02  1.99213885e-02 -6.17107712e-02  1.60489567e-02
  -6.27393872e-02 -3.32999527e-02  2.25890409e-02 -8.52171853e-02
  -3.90042588e-02 -6.40369505e-02  2.29870155e-02 -9.94881429e-03
  -1.46380747e-02 -1.58982985e-02 -3.22465859e-02  4.24722023e-02
   1.65177677e-02 -1.15237124e-02 -6.20685332e-03 -2.60655135e-02
  -1.57393292e-02 -4.14543971e-02 -4.78317551e-02 -3.57125998e-02
   6.08940888e-03 -2.11191420e-02 -1.65370274e-02  2.13289857e-02
   8.80405586e-03  1.54879810e-02 -1.64759196e-02 -3.63203441e-03
  -1.85362455e-02 -6.40779883e-02  1.70568656e-02 -9.25889425e-03
  -9.13732499e-03 -8.78670961e-02  2.49888618e-02 -1.82455871e-02
   6.85067102e-02  1.85418630e-03  3.76036465e-02  5.51219052e-03
   1.13117974e-02  5.73015921e-02 -1.21998200e-02 -8.66399407e-02
  -6.85219169e-02  7.55852368e-03 -6.37134863e-03 -1.37094498e-01
  -1.09292110e-02 -5.50451130e-02  3.00019458e-02  2.04474502e-03
  -1.30158644e-02 -2.90110223e-02 -2.26999968e-02 -3.89791168e-02
   1.17850937e-02 -4.27156081e-03 -1.22091193e-02 -1.34828768e-03
  -1.10792741e-02 -5.49347065e-02 -4.31315601e-03 -2.22161841e-02
  -7.85287395e-02 -5.04257195e-02 -2.62988061e-02  2.13609077e-02
   1.68029889e-02 -1.74271315e-03 -1.56711589e-03 -1.02232568e-01
  -4.07293513e-02 -5.84235340e-02 -2.45361729e-03 -2.71404572e-02
  -1.42250303e-02 -3.36413048e-02 -1.65126417e-02 -5.35212755e-02
  -1.53771406e-02  2.02821102e-02  1.34858415e-02  4.42339778e-02
  -6.96803704e-02  2.11642985e-03  2.58072745e-02  3.81682478e-02
   4.32262048e-02  3.84361483e-02  2.40393486e-02 -1.29444888e-02
   2.48816591e-02  6.61825156e-03  1.70184649e-03 -1.61460824e-02
   6.97283223e-02  1.36502478e-02  4.38487567e-02  1.35314669e-02
   6.09485544e-02 -2.92476472e-02 -3.40314722e-03  3.90223004e-02
  -6.05993457e-02  4.84843515e-02 -4.87282127e-02  3.10655814e-02
   3.77185307e-02 -3.20972092e-02  3.82862985e-02 -5.55243306e-02
   3.78775895e-02 -6.90305680e-02 -4.28818427e-02 -5.38794091e-03
  -1.11153221e-03 -5.10280728e-02 -9.13383963e-04  2.78601032e-02
   4.11649942e-02  9.06422585e-02 -5.87362284e-03 -4.50554155e-02]
 [-6.57468140e-02 -5.97210154e-02  1.00273967e-01 -9.75837279e-03
   2.25151274e-02  1.05566112e-02 -7.43550360e-02 -6.87829778e-02
   4.83521679e-03 -4.35373448e-02 -4.10658941e-02 -3.39965485e-02
  -1.68992504e-02 -7.95510970e-03  4.50116321e-02 -1.84663106e-02
  -7.46271089e-02 -3.81947905e-02  4.04243432e-02 -1.60937980e-02
  -1.44529948e-02  2.96247192e-02  2.37485226e-02 -1.26544503e-03
  -3.70464399e-02 -1.12756088e-01 -8.86104330e-02 -4.56321193e-03
  -3.24272737e-02 -5.82222193e-02 -1.71568897e-02 -5.01869544e-02
  -2.68504936e-02 -1.03767989e-02 -5.21444622e-03 -3.10089495e-02
   5.27935475e-02 -3.37283351e-02  3.75085883e-02 -2.14064848e-02
  -7.15820193e-02 -9.66658071e-02 -2.05840031e-03 -3.88603099e-02
   7.92341009e-02  4.17830832e-02 -3.28036211e-02 -3.86854932e-02
   1.56446278e-01  8.07356760e-02  7.16267340e-03  3.56304869e-02
   3.73594575e-02 -3.86540629e-02 -5.87301515e-02 -2.63465084e-02
   1.03248313e-01  2.47304887e-02  4.32761386e-02  4.64440435e-02
   5.48193827e-02  3.61715779e-02  4.68857773e-02  2.29511131e-02
  -5.82979582e-02 -6.70194775e-02 -8.65731668e-03  1.91196986e-02
   5.88001721e-02 -4.40670848e-02 -3.66759561e-02 -7.60997133e-03
  -5.63297831e-02  1.82777941e-02 -1.29933029e-01 -7.33637810e-03
   4.91700619e-02 -3.19298506e-02 -2.59301551e-02 -7.08423704e-02
   9.12414631e-04  2.65476741e-02  3.43639255e-02 -1.90512091e-02
  -5.16623333e-02  3.08428723e-02 -4.87785414e-02 -4.34388854e-02
  -3.31070949e-03  1.09417610e-01 -9.13787857e-02 -1.55113533e-03
   3.06985918e-02  3.37291369e-03  9.25177336e-03 -5.84861971e-02
  -5.45263514e-02 -1.14656828e-01 -7.76643865e-05 -4.48141210e-02
  -8.14093724e-02 -5.53905778e-03  2.47315736e-03 -5.86081222e-02
  -1.88770369e-01 -1.82911426e-01  1.18123680e-01 -5.11481464e-02
  -2.93918625e-02 -4.11984809e-02  2.04060115e-02  3.90728749e-02
   7.65606808e-03 -4.46973257e-02 -8.90724175e-03 -9.22251493e-02
  -3.72811966e-02 -3.64763439e-02  2.65709125e-02 -2.05220673e-02
   1.35511812e-02  1.18746318e-01  1.98982581e-02 -2.01952867e-02
  -1.25361741e-01  3.01979855e-02 -5.65708913e-02  1.74342822e-02]
 [ 3.50280805e-03 -2.10186392e-02  1.09989770e-01 -6.98101521e-02
   1.39799453e-02 -1.81582570e-02 -1.83489099e-02  1.42272547e-04
  -2.16655787e-02 -1.23205874e-02 -5.23132868e-02 -2.09410459e-01
   7.80312670e-03 -6.70538098e-02 -7.12100118e-02 -4.51763049e-02
  -9.66577325e-03 -1.44361304e-02  1.02153048e-01 -1.91308558e-02
   3.87606886e-03 -1.47605669e-02 -5.84134199e-02 -4.71632555e-02
   7.26944953e-02  2.50255167e-02  3.48861739e-02  7.55749568e-02
   2.41629444e-02 -5.52550964e-02 -6.01251386e-02 -5.21100126e-02
  -2.02387292e-02 -5.47370911e-02 -4.88959998e-02  2.09333282e-02
  -2.89947051e-03 -7.51353949e-02 -4.94343042e-02 -6.25487939e-02
  -4.45875525e-02  6.00344385e-04 -1.93539429e-02 -1.34914126e-02
  -1.54260695e-01 -6.96649253e-02  1.00959809e-02  2.28125253e-03
  -9.82196853e-02  5.98524557e-03 -2.14429460e-02 -1.10382013e-01
   4.25167195e-02 -1.39910616e-02 -5.99313006e-02 -5.20166419e-02
  -2.31200770e-01 -4.07919399e-02  1.62807517e-02 -2.70453151e-02
  -3.57245356e-02  3.34931798e-02 -6.26397505e-02 -2.23564789e-01
  -2.41573565e-02  2.88510714e-02 -5.06586097e-02  1.85713526e-02
  -1.47336572e-02 -5.62343858e-02 -8.63572862e-03  2.22577509e-02
  -7.47437729e-03 -2.39551947e-01  1.59164637e-01 -6.55173063e-02
   4.19400148e-02 -4.22356799e-02 -9.73337889e-02 -6.09734394e-02
  -1.71865076e-02 -4.42870781e-02  5.90923950e-02 -5.69229387e-02
  -1.38616320e-02 -2.60349382e-02 -7.15324208e-02  2.69671045e-02
  -1.70113277e-02 -1.13327593e-01 -2.20522344e-01 -1.40600517e-01
  -7.13672489e-02 -1.04222652e-02  1.97239891e-02  1.05960090e-02
   2.32254304e-02 -6.30194694e-02 -1.30928983e-03 -6.87115416e-02
   4.56776060e-02 -5.49924746e-02 -2.22166199e-02 -6.63826149e-03
   1.40287101e-01 -2.47588102e-02 -1.01299636e-01 -5.51218241e-02
   3.24389525e-03 -3.42846885e-02  3.14108282e-02 -2.64452510e-02
   5.57569554e-03  4.20883894e-02 -1.87410973e-02 -1.03940368e-02
  -4.85225953e-02 -8.91350135e-02  3.91657054e-02  9.63315018e-04
   2.49290075e-02  8.77881125e-02 -1.46365091e-01  1.44401230e-02
   1.39441520e-01  5.81709370e-02  5.40762320e-02 -6.08069971e-02]
 [ 6.63139625e-03  3.49637978e-02  1.42317161e-01 -4.74025831e-02
  -6.26235036e-03 -1.22915627e-02 -6.14919737e-02  1.42844440e-02
   3.18384059e-02 -3.57305855e-02 -5.31639904e-02 -9.88484025e-02
   1.86001193e-02 -5.62738739e-02  4.17248681e-02 -7.79641373e-03
   5.38000232e-03 -4.38990965e-02  2.88809966e-02 -2.09278930e-02
  -4.75025326e-02  3.68161276e-02 -4.83106449e-02 -1.60313454e-02
   1.56058446e-01 -2.03560200e-02 -4.23070528e-02 -1.10726049e-02
   2.87262462e-02  2.55483738e-03 -1.60246063e-02 -4.26339209e-02
  -4.09326926e-02  2.94311496e-04  3.14897671e-02  2.61028507e-03
  -3.23027335e-02  8.91321339e-03 -2.72668991e-03 -3.50800552e-03
   4.40799147e-02 -4.57014069e-02 -8.70195031e-02 -3.51120066e-03
   8.50601960e-03 -1.74043149e-01 -6.20044619e-02  1.81102067e-01
   7.76007697e-02 -2.98550595e-02 -1.10304624e-01 -6.25499198e-03
   2.96163652e-02 -2.47984217e-03 -6.26622885e-02  1.36697710e-01
  -5.15790731e-02  1.43977813e-03  3.21331732e-02 -1.48853455e-02
   5.33646122e-02  2.24197134e-02 -3.67783420e-02  7.71246031e-02
   4.38402081e-03  9.91438050e-03 -2.78786905e-02 -1.71947386e-02
   3.55369784e-02 -3.79438177e-02 -3.06503400e-02  2.99300090e-03
  -6.65145591e-02 -1.62220165e-01 -2.35947996e-01 -4.43829484e-02
   2.43935734e-03 -6.57304004e-02 -6.88025504e-02  5.36210239e-02
  -3.34960409e-02  2.76682861e-02  6.78274110e-02  2.38840897e-02
  -1.45258289e-02 -2.74647996e-02  3.67246196e-02 -2.86179576e-02
  -8.92813504e-02 -7.09438398e-02 -1.96837887e-01  2.55763769e-01
  -4.04345877e-02  2.64553819e-02  4.36591581e-02 -4.28653397e-02
  -3.07530072e-03  1.26137048e-01  1.31694034e-01  4.53668945e-02
   1.17072612e-01 -5.35249002e-02  4.70829289e-03 -1.78635679e-02
  -5.26974164e-02 -4.95261326e-02 -1.43001117e-02 -1.41261071e-02
  -4.02309299e-02 -5.07586524e-02  2.62439512e-02 -5.35651259e-02
  -2.69809738e-02  4.00658101e-02  2.85189543e-02 -8.57668649e-03
  -6.98536783e-02 -3.97275016e-02 -2.88860383e-03 -5.97946383e-02
  -5.11465548e-03 -1.05695173e-01  7.31161535e-02  1.05417781e-02
  -4.79037799e-02 -5.18868789e-02 -1.72323417e-02  3.19298916e-02]
 [-7.03613907e-02 -2.20436621e-02 -1.27192467e-01  9.91687775e-02
  -1.17517058e-02 -2.98707397e-04  6.26885146e-02 -8.65685865e-02
   1.27984583e-02 -4.05908488e-02  3.55146304e-02 -5.86092379e-03
  -4.48280349e-02 -2.70333011e-02  7.82941282e-03 -5.10031879e-02
  -6.71543851e-02  3.82486247e-02 -1.70992434e-01 -4.29438800e-02
  -9.61554125e-02 -1.63061265e-02 -3.25499326e-02  1.67388972e-02
   7.30734458e-03 -5.12810796e-03  5.30796796e-02 -9.48383063e-02
  -6.60377741e-02 -7.64696859e-04 -4.79964577e-02 -2.26115808e-02
  -3.74678075e-02  4.35739644e-02 -4.73623071e-03 -4.66181152e-02
  -3.42086628e-02 -3.60180587e-02  2.17191875e-03  4.32988070e-03
   1.90424938e-02  2.67712642e-02 -2.96418648e-02 -2.32361872e-02
   1.61161795e-02  9.78572145e-02 -3.18108350e-02  1.34016545e-02
  -4.11182940e-02 -1.59546331e-01 -7.02129072e-03 -8.47219005e-02
   3.95810083e-02  3.36515941e-02 -1.08832438e-02 -7.08430856e-02
   6.96202414e-03  2.67928094e-03  4.28522900e-02 -2.71748547e-02
   1.22388033e-02 -6.13054559e-02  1.97233353e-02 -6.74329419e-03
  -1.16966173e-01 -4.79754731e-02 -2.84972060e-02 -1.45725189e-02
  -2.94126514e-02  7.02259422e-04 -4.65822741e-02 -4.62648794e-02
  -3.92012261e-02  1.19446521e-03 -6.52596503e-02 -4.64021489e-02
  -2.42334362e-02 -5.56962490e-02  1.01274978e-02  1.64217446e-02
  -1.31282248e-02 -5.00722453e-02 -1.45536751e-01  3.40407491e-02
  -1.21530320e-03  6.87845796e-02 -4.36766632e-03 -4.32790926e-04
  -7.04536960e-02  4.37775403e-02  5.16455062e-02 -9.78722647e-02
  -9.94533673e-02  4.12671417e-02  7.25602545e-03  2.36232746e-02
   2.02076286e-02  3.39980191e-03 -1.73343047e-01  3.18555273e-02
  -2.78505813e-02  1.43939713e-02 -5.31237908e-02  3.08043160e-03
  -1.41900703e-01 -1.16490826e-01  7.03116357e-02  1.20922990e-01
   6.33780519e-03  4.02978212e-02 -2.04775203e-02  8.49453732e-02
   1.07230316e-03 -4.82417196e-02  2.15427056e-02 -3.88249708e-03
   4.05680872e-02 -2.80003063e-02  5.15692234e-02 -1.40182907e-02
   6.61197118e-03 -6.03688322e-02 -7.77147152e-03  5.07721417e-02
  -1.78013798e-02 -5.85930981e-02 -1.29599506e-02  4.89685200e-02]
 [ 8.47677514e-03 -4.53516692e-02  8.52806717e-02 -7.70488307e-02
  -6.79210126e-02  8.32402334e-03  8.44165310e-03 -4.23817988e-03
  -6.77143484e-02 -5.56954294e-02 -4.71386723e-02 -2.80498534e-01
   2.94849258e-02  6.50004297e-02 -3.39426957e-02  2.26094248e-03
   2.76267920e-02  1.95484310e-02  9.69241410e-02  2.46930234e-02
  -4.31809537e-02  5.19857034e-02 -2.87579596e-02  6.19680695e-02
   1.49468243e-01 -4.06242013e-02 -6.99122176e-02  5.78756328e-04
   2.86120772e-02 -3.49443331e-02 -5.48553243e-02 -4.87170331e-02
   4.81948853e-02  2.66731679e-02  3.98076177e-02  1.49054676e-02
   1.30512994e-02  2.55020615e-02  2.78204307e-02  7.67238736e-02
  -6.36610538e-02  5.94666898e-02  5.90642132e-02 -2.04755031e-02
   7.04450160e-02 -2.40384355e-01 -4.76772264e-02  1.00681700e-01
   2.22182670e-03  9.36029479e-02 -1.69968694e-01 -5.34792766e-02
  -6.16379380e-02  9.19643231e-03  3.94219123e-02 -7.88733270e-03
  -1.15556806e-01 -2.42054164e-02 -8.77883285e-03 -4.44927737e-02
  -2.71651186e-02  4.83117066e-02 -1.44115519e-02 -2.20721424e-01
   4.56686355e-02  8.35928321e-03  5.22309635e-03 -6.28549382e-02
   2.20820263e-01  5.43514639e-02 -3.64578180e-02 -2.83083320e-02
   1.84908397e-02 -1.23371981e-01  2.89467946e-02 -7.36572919e-03
  -3.03561185e-02 -2.17904313e-03  1.02014896e-02 -3.93399373e-02
   3.31182145e-02  3.65264751e-02  1.37598410e-01  4.13984507e-02
   4.88611236e-02  6.65180981e-02  4.53154407e-02  1.55971767e-02
   2.06231885e-03 -1.26453161e-01 -1.60945833e-01  1.38084874e-01
  -2.37874821e-01  7.13279620e-02  1.30464807e-01  1.33712981e-02
   1.18588239e-01 -1.30343959e-02  6.60091564e-02  5.66717759e-02
   8.80355313e-02  2.86767017e-02 -1.25943101e-03 -4.24713008e-02
   4.03427966e-02  9.90126431e-02 -1.44840404e-01  6.11143140e-03
  -2.51067467e-02 -9.28495452e-02 -4.93465215e-02 -2.17857771e-02
   2.36677583e-02  3.21871974e-02  7.85685237e-03 -3.74453068e-02
   1.79655459e-02 -7.40554323e-03 -3.11785433e-02 -4.29406799e-02
  -4.74302433e-02  1.85371518e-01  4.48712334e-03 -2.02825330e-02
   4.72980924e-02  6.22014813e-02  3.29080075e-02 -1.21625336e-02]
 [ 1.70414615e-02 -7.06951916e-02 -3.74469943e-02  1.96361989e-02
   2.17056833e-02  3.66965458e-02 -5.70475683e-03 -1.38362899e-01
   3.36149409e-02  4.84119356e-02 -1.10656191e-02  3.93121541e-02
  -2.94941198e-02 -8.13256800e-02 -3.81529592e-02  2.43845955e-02
  -4.85532321e-02 -4.30050716e-02 -1.49079133e-02 -9.29092430e-03
   3.03182472e-02  4.51765582e-02  4.01395969e-02  1.99679490e-02
   4.25554663e-02 -3.08052301e-02  3.69980000e-02 -5.79769956e-03
  -4.94159088e-02 -1.79418735e-02 -2.21553817e-02  6.89603249e-03
  -4.96913828e-02  4.27523442e-02 -4.57901061e-02 -1.52608473e-02
  -2.04495694e-02  6.47429330e-03 -1.62496381e-02  6.59852242e-03
   2.40526292e-02 -1.20112393e-02 -4.10839282e-02  1.04132956e-02
   2.77926330e-03  3.58918644e-02 -1.70913842e-02 -3.48404492e-03
  -9.29536521e-02  2.41823327e-02  3.83617654e-02  1.71295665e-02
  -1.64643731e-02 -3.06031499e-02 -1.29828118e-02 -1.03172816e-01
  -1.05895527e-01 -6.09041266e-02  5.05172312e-02 -1.46587510e-02
  -1.89361330e-02 -3.38526517e-02  1.77608617e-02 -2.47241315e-02
   9.73938004e-05  2.47496068e-02 -4.25610766e-02  4.10992242e-02
  -7.00661391e-02  1.88538469e-02 -6.38850629e-02 -2.69815773e-02
  -5.26249446e-02 -5.27346432e-02 -8.52716118e-02 -4.97870855e-02
  -6.83196560e-02  3.24276052e-02 -1.99260954e-02 -1.82974879e-02
   3.96295339e-02  5.07796556e-03  2.10039038e-02 -2.45359913e-02
  -4.73010466e-02 -3.36654633e-02 -1.46142021e-02  8.41119047e-03
   4.51117381e-02 -4.14165221e-02 -1.24858925e-02 -9.56845397e-05
   8.10478721e-03 -5.28491363e-02  5.17443148e-03  2.59781685e-02
  -6.66729286e-02  2.39094370e-03  2.34791879e-02 -6.30504265e-02
   2.51429006e-02 -1.91217419e-02 -3.69430184e-02 -3.28785926e-02
   4.93205115e-02  8.44245180e-02 -2.35132626e-04 -7.77858263e-03
  -1.44543899e-02  5.35897561e-04 -3.58673818e-02  5.87024800e-02
   7.09417043e-03 -5.86328395e-02 -1.64765678e-02 -6.85285628e-02
   3.66509557e-02 -2.93222889e-02 -3.43752019e-02  4.37182151e-02
  -3.50481421e-02 -3.99097614e-02  1.19349221e-02  3.68546471e-02
   4.80250223e-04  4.59746793e-02 -2.47747898e-02 -3.74073982e-02]
 [ 1.67063642e-02 -7.42176250e-02  9.89022702e-02 -3.75413857e-02
   8.23218469e-03  8.07694346e-03 -9.54391807e-02 -8.33869055e-02
  -3.56888995e-02 -5.75673245e-02 -1.12065356e-02  3.66707407e-02
  -2.81611755e-02 -3.43499109e-02 -4.03360464e-02 -4.75506037e-02
   7.05979019e-03  1.41103575e-02 -3.74178812e-02 -5.88394441e-02
  -4.29732129e-02  2.59672105e-02  1.40758706e-02 -5.17216101e-02
  -8.18396732e-02 -6.41210154e-02  1.60766207e-02 -4.13926272e-03
  -1.95937902e-02  2.78001949e-02 -6.28464445e-02  4.50092070e-02
   1.84582174e-02 -1.38236890e-02  4.46291901e-02  2.88595036e-02
   4.84066270e-03 -9.58892610e-03 -3.91944423e-02 -8.59200358e-02
  -9.49434713e-02 -9.07207951e-02 -5.80620281e-02 -8.84214640e-02
  -3.26436237e-02  1.18455283e-01  7.87828412e-06  6.92285923e-03
   7.29536936e-02  4.17466499e-02  6.34547099e-02 -3.01407184e-02
  -5.57972006e-02  1.65401362e-02  3.13813463e-02 -6.17831945e-02
   4.09348086e-02  2.23078690e-02  2.83449441e-02 -4.66501229e-02
   1.17355734e-01 -3.30815874e-02  6.00652099e-02 -3.75254825e-02
   5.12611642e-02 -2.39323396e-02 -6.75462335e-02 -1.41426576e-02
  -8.05797651e-02  2.91183945e-02 -2.48928759e-02  2.64982600e-02
  -1.91595331e-02  6.77807555e-02 -2.07374603e-01 -2.61944085e-02
  -1.83808114e-02 -4.83322330e-02 -5.54527268e-02  9.13110562e-03
  -7.89625477e-03  5.44167161e-02 -1.44569635e-01  5.24224974e-02
  -2.36697774e-02  1.19047299e-01 -9.08402279e-02  1.71105750e-03
   2.87330840e-02  2.92585231e-02 -1.23059444e-01  1.98797584e-02
   6.19848557e-02 -1.88550036e-02  1.82434488e-02 -4.36412320e-02
  -1.11330532e-01 -6.67900741e-02  1.68576129e-02  1.48435710e-02
  -1.28667250e-01 -1.35936486e-02  3.09215561e-02 -1.75797124e-03
  -2.48344429e-02 -1.53807774e-01  7.22964182e-02 -5.96399717e-02
  -8.51888284e-02 -2.15136795e-03  3.31236087e-02 -3.27651426e-02
  -6.99293390e-02 -6.62973449e-02 -8.29823874e-03 -1.39517235e-02
   1.24511244e-02  5.70559409e-03 -5.92455417e-02  6.30129315e-03
  -6.97696656e-02  9.08655599e-02  4.48803119e-02  4.77237627e-02
  -5.15555125e-03  8.42854902e-02 -4.51831520e-02  2.34683156e-02]
 [ 1.89533867e-02  4.47495990e-02 -4.09018993e-02  1.06305378e-02
  -2.01446330e-03 -3.19799781e-02  4.97821681e-02 -7.26639554e-02
   4.55491655e-02 -2.20599324e-02  2.47484222e-02 -1.51966050e-01
  -6.37481287e-02 -4.40576114e-02  1.22996084e-02  4.19952385e-02
  -2.67001521e-02 -4.41612750e-02 -2.94471364e-02 -1.22435926e-03
  -6.15065023e-02 -2.08701119e-02  2.33923644e-02 -5.47235459e-02
  -7.58289620e-02  1.39118573e-02 -3.35092284e-02  1.00191526e-01
  -4.62035388e-02  1.46586010e-02 -6.26538880e-03 -7.25410134e-02
  -7.58958459e-02  6.83092372e-03  2.34357710e-03 -3.28754783e-02
   4.11932506e-02 -6.63966238e-02 -3.77007760e-02 -7.73157701e-02
   4.36094869e-03 -3.76794487e-02  5.51074259e-02  1.71139780e-02
  -7.60432258e-02 -6.54534847e-02 -1.35298729e-01  3.90300527e-02
  -4.60121743e-02  2.73314118e-02 -3.95639502e-02 -5.45580238e-02
   5.08349063e-03 -1.41067309e-02  2.01968346e-02 -2.85594538e-03
  -9.69736725e-02  5.39043322e-02 -6.52994066e-02  2.32619215e-02
  -8.02379102e-03  2.74107438e-02  1.91044305e-02 -7.46821705e-03
   1.47113666e-01 -7.07335863e-03 -9.94470641e-02 -7.91523159e-02
  -5.95913827e-02 -1.36823682e-02 -1.99758410e-02 -5.83116040e-02
  -6.98801726e-02 -2.23623723e-01  7.01979129e-03  2.42559277e-02
   2.77192090e-02 -4.04609479e-02 -4.14557159e-02 -8.20211396e-02
  -3.57348658e-02 -3.26100104e-02  7.90767968e-02  6.66715717e-03
   3.70731652e-02  1.08805262e-01  1.34646846e-02  2.90129171e-03
   7.53895342e-02  2.17949729e-02 -6.66953325e-02 -8.54822248e-02
  -1.04476638e-01 -5.15889302e-02 -1.61278322e-02  4.81070904e-03
   6.51120171e-02 -2.01516703e-01  5.11248549e-03 -2.96015237e-02
  -3.46780904e-02 -3.35960612e-02 -5.05296066e-02  2.46347301e-02
   3.65719758e-02 -7.84145817e-02 -1.01410739e-01 -3.70099172e-02
  -7.30652139e-02  6.31931350e-02 -5.63782081e-02  3.25541086e-02
   1.77502236e-03 -3.60539407e-02 -2.92250258e-03 -5.29022366e-02
   1.39186243e-02  5.29222861e-02  2.56569237e-02 -5.20327576e-02
   8.54683202e-03  6.63228258e-02 -1.70966275e-02  1.42459860e-02
   4.85877916e-02  3.09115816e-02  2.20240969e-02  3.15682078e-03]
 [-1.76190306e-02  1.72915105e-02 -3.25827952e-03 -2.04783920e-02
   4.05464210e-02  1.45836314e-02 -1.51316047e-01 -2.68672910e-02
  -1.77556518e-02 -2.10461114e-03 -4.49951254e-02 -8.48240033e-02
  -7.76607990e-02  1.41686406e-02  1.30494665e-02  4.25816979e-03
  -4.40723002e-02 -3.76913399e-02  8.52920562e-02 -1.07137510e-03
  -2.82216333e-02 -7.54336687e-03  2.27567367e-02 -3.18277851e-02
   1.33371592e-01 -5.32914326e-02 -1.47451963e-02  1.67408258e-01
  -4.01059091e-02 -2.38733664e-02  3.27838883e-02 -4.40660827e-02
  -4.50993776e-02  4.96018678e-02 -3.77953351e-02 -4.33219559e-02
   4.43515293e-02 -8.37254971e-02  8.33151042e-02 -5.74894100e-02
   3.23938131e-02  4.05158699e-02 -2.98692640e-02  1.62730906e-02
   5.40479794e-02  8.95827934e-02 -5.38912835e-03  1.16450014e-02
  -4.11482230e-02 -1.40562147e-01  8.80674720e-02 -7.95693099e-02
  -5.81489876e-03 -3.90715487e-02 -6.23293482e-02 -4.38675750e-03
   9.16818716e-03 -6.02130368e-02  3.55386063e-02 -1.81307811e-02
   1.88444499e-02  5.04408090e-04 -5.07443659e-02  9.80756655e-02
   3.16890143e-02 -6.33817762e-02 -1.23953819e-02 -3.24753039e-02
  -9.09872004e-04 -1.56632792e-02 -5.24086738e-03 -5.61733060e-02
  -3.34244706e-02 -9.71180350e-02 -1.50532961e-01 -3.91526036e-02
  -4.14258949e-02 -2.70963944e-02  1.68560728e-04  3.16854417e-02
  -2.79071704e-02  1.13438684e-02  4.06470224e-02  1.43794436e-02
  -3.89312990e-02  3.73045309e-03  2.39670556e-02 -3.39862108e-02
  -3.27935852e-02 -5.36329986e-04 -3.97137441e-02  1.34225562e-01
  -2.01386288e-02 -2.38643810e-02  2.88444161e-02 -3.44121153e-03
   4.51955311e-02  5.08098751e-02 -1.11159623e-01  2.98912860e-02
   1.15474872e-01  1.15974788e-02 -5.62367775e-02  6.32778928e-02
   5.56315901e-03  3.96968201e-02  3.21651995e-02  3.37937730e-03
   5.54145351e-02 -6.79188520e-02  1.91737451e-02 -3.60381417e-02
  -3.80059630e-02  9.32484027e-03 -5.39637245e-02 -1.38065917e-02
  -1.87031925e-02 -6.74656080e-03 -2.09528655e-02 -4.29491177e-02
  -5.53246513e-02  9.95645300e-04  5.89396022e-02 -3.16823125e-02
  -1.10804148e-01  1.05201490e-01  2.07494553e-02  4.60367687e-02]
 [ 4.51148078e-02  5.05551286e-02 -6.22228049e-02  7.66684115e-02
  -3.30349104e-03  5.29153571e-02  6.87207803e-02 -7.46644363e-02
   3.93615663e-02 -7.29995593e-03  2.35401895e-02 -2.51865983e-02
  -7.28230476e-02 -1.78616475e-02 -2.25915778e-02 -6.76382380e-03
   8.17103032e-03  4.60079275e-02 -1.69371739e-01 -6.37984872e-02
   1.58075485e-02 -3.40829268e-02 -6.18704483e-02 -6.06109016e-02
   3.12037603e-03 -9.29994360e-02  3.30799967e-02 -2.88449624e-03
  -3.46948728e-02  4.20127204e-03 -1.53923202e-02 -2.17859466e-02
  -3.21229808e-02  1.10780494e-02  4.28106040e-02 -2.00107358e-02
   8.40308424e-03 -5.82679920e-02  3.60355563e-02  3.19059119e-02
  -3.36238556e-02  1.82902790e-03 -1.70966126e-02  8.61865468e-03
  -7.14116767e-02  4.37047258e-02  3.77267376e-02 -2.78023593e-02
   9.89732798e-04 -6.35786057e-02 -3.98602299e-02 -2.67035123e-02
  -5.00102676e-02  2.16379240e-02 -2.23342353e-03 -4.04798128e-02
  -8.54749605e-02 -3.47692259e-02  5.43455295e-02 -2.92772278e-02
   2.68956777e-02 -5.59034236e-02 -1.43449502e-02 -5.70567623e-02
  -8.73569027e-02  4.09245715e-02 -4.55407500e-02  1.77665316e-02
  -1.74779966e-02 -2.00528279e-02  1.11024519e-02 -2.75521558e-02
  -7.70603046e-02  5.60858054e-03 -1.10261738e-01 -6.15545176e-02
  -3.04576177e-02  3.95789482e-02 -2.73859072e-02  3.80435139e-02
   5.66260293e-02 -1.57398675e-02 -2.24845316e-02 -4.81649098e-04
   2.85148080e-02  1.08893879e-01 -1.95701681e-02 -4.94385511e-02
  -4.99717705e-02  4.22506742e-02  3.30997407e-02  2.09720042e-02
  -2.27830466e-02  2.96164900e-02 -6.72682077e-02  5.27907200e-02
  -2.11651350e-04 -6.36733621e-02 -1.50447264e-01  3.05088125e-02
  -9.88663435e-02 -3.21527980e-02 -3.55356038e-02  2.82471515e-02
  -6.44190460e-02  4.99156006e-02  3.78287584e-02  1.28140837e-01
  -4.72747758e-02  3.58857810e-02  4.33694571e-02  2.85690688e-02
   2.57050749e-02  1.22289602e-02 -3.75596024e-02  2.09678635e-02
   4.68207933e-02  3.75659093e-02 -2.99390089e-02  1.22683607e-02
   2.49468237e-02 -4.18055579e-02 -3.13439257e-02  2.19662581e-02
  -1.75502263e-02 -7.35823438e-02 -1.93579774e-02 -2.01176852e-02]
 [-8.11885577e-03 -5.18433228e-02  1.09016344e-01  1.37752458e-01
   2.85564549e-02  4.90723061e-04  6.68592080e-02 -9.29242000e-03
  -3.49509828e-02 -1.04661845e-02  6.01827260e-03 -3.39343816e-01
   2.95691453e-02  2.24266220e-02 -6.76302090e-02 -8.77871644e-03
  -5.19950017e-02  1.57595295e-02  2.49521602e-02 -3.39123011e-02
  -1.96834151e-02  3.07304244e-02 -2.25927997e-02  3.75306942e-02
   1.46332100e-01  5.02358638e-02 -2.52166148e-02 -1.07410990e-01
   3.91439162e-02 -2.64882073e-02  1.43867200e-02 -2.28710100e-02
  -3.61213349e-02  1.82671696e-02  5.20663857e-02  2.67062858e-02
  -2.97168475e-02 -6.60368707e-03 -2.51103402e-03  2.24672426e-02
   1.86055098e-02 -2.91849738e-05 -2.11025886e-02  7.56540596e-02
   8.05269927e-02  6.30785376e-02  2.49862988e-02  1.81285311e-02
   4.31539007e-02  7.05031678e-02 -2.36159280e-01  8.03165212e-02
   2.49928143e-02 -8.70546475e-02 -7.39546120e-03  2.50072461e-02
  -8.96429121e-02 -4.61688153e-02 -1.41760008e-02 -5.25767580e-02
  -9.41175967e-02  1.36275766e-02 -3.57544757e-02  4.72364165e-02
   1.21511407e-01  3.49272937e-02 -5.04470542e-02  2.54594050e-02
   2.37941578e-01  6.55457424e-03  5.36197014e-02 -3.20849121e-02
   2.90119592e-02 -3.27206314e-01 -1.06231309e-01 -1.97524969e-02
  -4.53843474e-02 -6.10001571e-02 -3.51528786e-02 -1.87401026e-02
   1.32199926e-02  5.09031815e-03  1.64417431e-01 -6.10433780e-02
  -5.13995811e-02  9.18268319e-03 -8.37344900e-02  2.70407181e-02
  -1.35794058e-02 -9.94438082e-02 -1.40667260e-01  1.14732213e-01
  -1.81488037e-01  7.78608071e-03  3.83256488e-02 -1.12212747e-02
   2.00079948e-01  8.25774968e-02 -4.89243530e-02 -9.01054498e-03
   7.59609416e-02  1.53903128e-03 -4.23241928e-02  4.19683680e-02
   2.96407118e-02  1.31330997e-01 -1.43479168e-01  5.86611172e-03
   9.48435720e-03  1.43933550e-01 -4.32179533e-02  3.67163084e-02
  -9.70084965e-02  3.20367776e-02  1.26349870e-02  5.69501799e-03
   3.89316566e-02  8.49994645e-02  2.79006381e-02 -4.51788604e-02
  -4.35587615e-02  2.48586461e-02  6.50074193e-03 -5.26767261e-02
   5.64878732e-02 -1.56218344e-02 -4.23838608e-02  1.10196508e-02]
 [ 4.08556648e-02  5.34776459e-03 -3.62010337e-02 -1.06924400e-02
   3.83485528e-03  3.97560969e-02  1.29070478e-02 -1.12518996e-01
   3.80568989e-02  1.00363828e-02  2.99137961e-02 -2.26056315e-02
  -2.51427256e-02 -2.03509927e-02 -4.02215421e-02 -4.36015613e-02
  -2.52229124e-02 -6.06504977e-02 -5.50020039e-02  4.33609309e-03
  -6.11264035e-02  7.98595313e-04 -4.45525534e-02  2.33941153e-03
   4.68572639e-02 -3.92098576e-02  4.60608602e-02  5.48255593e-02
  -3.56535539e-02 -6.12367094e-02  1.24887470e-02 -5.03381714e-02
  -4.90506887e-02  1.88971739e-02  1.40449975e-03 -4.79069129e-02
  -6.99768169e-03 -3.61035354e-02  6.11785287e-03 -6.94082156e-02
  -7.05224425e-02 -5.04798181e-02  7.31562525e-02  1.49986865e-02
   1.02163227e-02  3.47119309e-02 -5.84110953e-02 -6.52279928e-02
   2.99150660e-03 -6.17961586e-02 -2.19059754e-02 -3.80508341e-02
  -1.77273136e-02 -5.24791256e-02 -6.04726337e-02 -3.25844553e-03
  -1.24569302e-02  5.15681282e-02  9.15199518e-03 -5.43465652e-02
   6.03623204e-02 -8.75438470e-03 -9.19248350e-03 -8.28178078e-02
  -6.12043776e-02 -4.82618902e-03 -1.53571982e-02  2.42244657e-02
  -5.91470450e-02  4.99976519e-03 -4.88302596e-02 -6.69915676e-02
  -2.83870231e-02  3.65881287e-02 -2.62764040e-02 -1.41037395e-02
  -1.28028505e-02 -1.09821353e-02 -1.86444521e-02 -6.63286261e-03
   4.78988774e-02  8.94990563e-03 -6.34497479e-02  1.00675849e-02
  -5.38972020e-02 -4.00441326e-02  2.67241728e-02  3.80140804e-02
  -8.73738974e-02  1.14273727e-02 -7.01162592e-03 -2.82132477e-02
  -5.23511842e-02 -3.72134112e-02 -4.21317816e-02 -5.56415692e-02
  -5.02488762e-02  2.48770956e-02 -9.71833151e-03  2.39361599e-02
   4.84284014e-02  2.58949660e-02 -5.34526967e-02 -9.17134713e-03
   4.22102176e-02 -1.13079166e-02 -3.85429640e-03  1.39882434e-02
   5.19727767e-02 -2.93866470e-02 -2.44218279e-02  2.67627556e-02
  -5.65033332e-02 -2.60698423e-02  2.38566548e-02 -1.14392126e-02
   4.37786467e-02 -6.71643615e-02 -4.69434634e-02 -4.03549708e-02
  -4.09164205e-02 -3.45550552e-02  6.70125857e-02  2.85926051e-02
   6.27367292e-03  1.11470506e-01  4.63512763e-02 -3.11280396e-02]
 [ 6.60602981e-03 -3.39927748e-02 -3.51531394e-02 -7.65534043e-02
  -5.83723076e-02 -6.29587397e-02 -2.20146663e-02 -1.18440762e-01
  -1.36993593e-02 -5.62313087e-02 -3.04234661e-02  3.33217978e-02
  -4.76177484e-02 -5.57908788e-02 -3.94008495e-02  3.69331501e-02
  -2.61591561e-02 -1.61372311e-02 -1.29388999e-02 -2.63770390e-02
  -2.34326664e-02  1.31310290e-02  4.25731577e-02 -7.21102804e-02
  -7.98829943e-02 -9.07452106e-02 -6.33139089e-02 -7.03118695e-03
   3.96231096e-03 -8.64315107e-02 -4.70132604e-02  2.56268140e-02
  -1.12824645e-02  3.47160511e-02  5.56905903e-02 -3.92133407e-02
   5.75957932e-02 -9.23867896e-02 -5.08681089e-02  2.69368174e-03
   2.65893694e-02  1.73415639e-03 -5.44680953e-02 -6.16077334e-02
  -4.47811373e-02  1.33598357e-01  3.32959369e-02  7.74518847e-02
   2.27898285e-02  5.41674346e-02  8.95217732e-02 -2.95492467e-02
   1.25121912e-02  2.12981179e-02 -4.34955694e-02 -4.72159646e-02
   2.11076085e-02 -3.78103144e-02  5.76775009e-03  2.55053826e-02
  -1.67128537e-02  3.15456539e-02  6.05320036e-02 -1.76470913e-02
   6.49754480e-02  1.97151792e-03 -6.73118085e-02 -1.55990394e-02
   3.91242951e-02  1.20545924e-02  2.49056779e-02 -3.14611122e-02
  -1.12554599e-02  1.19997002e-01 -1.66170925e-01 -4.15778384e-02
  -4.12261896e-02  2.67921947e-02 -1.58011671e-02 -1.53747178e-03
  -4.21663933e-02  4.27470505e-02  6.13701018e-03 -5.31574413e-02
  -3.52147184e-02  1.18145645e-01 -6.40081689e-02 -2.32212897e-02
  -4.44682389e-02  6.40044883e-02  1.40981115e-02 -2.24197656e-02
   6.32925406e-02 -1.57558620e-02 -7.80533403e-02  2.80293841e-02
  -6.66716024e-02 -7.98019916e-02 -2.36654505e-02  2.98996107e-03
  -1.16275541e-01  3.51889082e-03 -5.75495064e-02  2.04519667e-02
  -9.75879729e-02 -7.09046274e-02  8.31887051e-02  7.74040772e-03
   2.03282721e-02  1.50583289e-03 -4.18374278e-02  5.83977215e-02
   1.21080466e-02 -4.87192646e-02 -2.07269788e-02 -3.72478813e-02
   1.18457759e-02  1.24634942e-02  4.40906212e-02 -4.43622693e-02
   1.82723894e-03  1.74374342e-01  4.18263823e-02  5.12255505e-02
  -2.54825577e-02  3.35220620e-02 -6.91754222e-02 -5.52749634e-02]
 [-1.95936505e-02 -2.37106476e-02 -3.89455184e-02 -8.40086341e-02
   5.57754114e-02  2.99656708e-02 -9.84231010e-02 -2.23109663e-01
  -1.96286272e-02  1.73530262e-02 -4.22227830e-02 -1.91846281e-01
  -5.89777119e-02 -7.17800856e-02  3.67397927e-02 -8.46101344e-03
   2.38599889e-02  3.25386636e-02 -2.94886269e-02 -5.54942712e-02
  -5.46818785e-02 -6.74351975e-02 -1.25628188e-02  2.86902278e-03
   3.98428403e-02 -9.36498307e-03  9.74674430e-03 -1.13234324e-02
  -5.49463034e-02  3.70514207e-02  3.26833315e-02  4.97241840e-02
  -3.87426727e-02  4.58354242e-02 -6.01167455e-02  5.09303808e-02
  -1.00881569e-01 -3.79042290e-02  1.33689623e-02 -3.87791805e-02
  -2.81960666e-02 -1.89542379e-02  8.49853754e-02  8.63787606e-02
   6.25075921e-02  8.93350467e-02 -9.10587534e-02 -3.66921425e-02
   4.31282036e-02 -9.84690636e-02 -1.10154770e-01 -1.12371586e-01
  -3.62234339e-02 -3.35145928e-02 -6.80928007e-02  2.58293711e-02
  -6.01294972e-02 -2.57486142e-02 -6.67048171e-02 -3.41592962e-03
   2.26387903e-02  1.31695392e-02  3.82473804e-02  3.68078239e-02
   1.27458468e-01 -7.80383917e-03 -6.87336624e-02 -2.41257232e-02
  -4.72820178e-03 -5.41929044e-02 -2.07458604e-02 -9.86595824e-03
   9.84618906e-03 -1.67958409e-01  3.00017837e-02 -4.34918329e-02
  -9.37441885e-02  1.11613916e-02  7.45553747e-02 -2.36626975e-02
  -3.26797105e-02 -5.56284897e-02  9.72944312e-03  4.60563861e-02
  -3.47754993e-02  2.86163529e-04  1.00541860e-02 -9.52712819e-03
  -1.89639740e-02  4.67889868e-02 -1.65682007e-02 -1.46787494e-01
  -1.70949385e-01  2.99983118e-02  2.43316460e-02 -6.23338372e-02
   2.97968108e-02 -1.75590187e-01 -1.06992960e-01  3.75904590e-02
  -4.20031063e-02 -3.74125340e-03 -5.59420213e-02  1.92984659e-02
  -5.98446317e-02 -3.21354382e-02 -7.89796486e-02 -6.16101623e-02
   3.74967162e-03  2.86144298e-03 -2.86329221e-02 -4.45646867e-02
  -4.92838621e-02  2.42852923e-02  2.80880854e-02 -2.20369939e-02
  -7.72009743e-03 -2.35851947e-02 -3.12451031e-02 -1.59381516e-02
  -4.20832969e-02  1.32509664e-01 -3.45079824e-02  1.00268787e-02
   1.21552087e-01  2.35252138e-02 -4.86898869e-02  2.17842143e-02]
 [ 8.31893366e-03  4.36054468e-02 -1.12882562e-01 -9.66493040e-03
   5.85825033e-02 -6.01031967e-02  4.03580293e-02  2.15174913e-01
  -1.32291876e-02  7.05429632e-03 -5.89426272e-02  2.83494294e-02
   4.48287241e-02 -4.37189862e-02  8.47005926e-04 -3.03665455e-02
   4.35913913e-02 -1.25655411e-02  2.10934237e-01  5.01947924e-02
   3.11527122e-02 -3.84644605e-02  4.87609394e-02 -3.02139553e-03
   6.34270459e-02 -8.20104629e-02  2.81499159e-02  5.23880236e-02
   5.52869961e-02 -1.15044238e-02 -3.30867022e-02  3.57447080e-02
  -1.94674116e-02  3.73797454e-02  2.40770094e-02 -4.28460725e-02
  -1.00637088e-02 -8.21398050e-02  3.41555513e-02  3.07103060e-02
   5.46934083e-02  1.39089255e-02  1.47632901e-02 -5.58535866e-02
   1.49485603e-01 -2.58726031e-02 -9.13895946e-03  1.53310597e-02
  -1.40235782e-01 -2.25881245e-02 -1.42086849e-01 -9.56111997e-02
  -3.51720005e-02  2.40916740e-02 -2.34862529e-02 -2.52995118e-02
  -1.03486791e-01  1.19140674e-03 -4.99719232e-02 -1.69123244e-02
  -2.25345604e-02 -2.94932295e-02 -1.01642184e-01  5.08476384e-02
  -1.71176884e-02 -1.61571354e-02 -1.57724153e-02 -6.94506615e-02
   1.04962904e-02  1.59547373e-03  2.69381534e-02  3.86789702e-02
  -1.50878029e-02  6.89002126e-02  2.68097389e-02 -1.74036585e-02
   2.09251978e-02  3.56850103e-02 -1.72882155e-02 -9.11539607e-03
   3.25924493e-02 -2.74595972e-02 -7.43309781e-02  4.66293050e-03
   1.14927804e-02 -1.82925865e-01  5.32424301e-02 -1.03404336e-02
  -4.08513695e-02  4.95666079e-02  1.17521845e-01  1.34975240e-01
  -5.64304143e-02 -2.19856370e-02 -2.05782633e-02 -2.97040604e-02
   9.90522951e-02  6.48659021e-02 -1.57370836e-01  3.89776863e-02
  -3.36225424e-03  3.23539414e-02 -4.49530073e-02 -2.15870459e-02
  -1.13443136e-01  1.59866676e-01 -1.68556888e-02  3.22507285e-02
   1.49239209e-02 -7.95560777e-02 -1.34239011e-02  2.56872550e-03
   9.91390273e-03 -5.95887080e-02  3.96521986e-02 -3.19008790e-02
  -3.51393074e-02  3.46206799e-02  1.19006343e-03  4.61293496e-02
   1.51413877e-03 -8.55742544e-02  1.31673068e-01 -5.89920729e-02
   2.47346088e-02  8.89107436e-02  3.94617021e-02 -2.96040941e-02]
 [ 1.52891260e-02 -6.41984269e-02 -1.23958819e-01 -7.66463054e-04
   1.50221651e-02  4.78119515e-02 -2.74162982e-02 -1.67061817e-02
  -5.15660569e-02 -6.57087862e-02 -5.17776608e-02  3.57211381e-03
   3.99102308e-02 -4.56146933e-02  3.51568200e-02  1.51189754e-03
  -3.54810171e-02 -7.05591440e-02 -1.60601974e-01  1.59647707e-02
  -4.11625728e-02  2.81309299e-02 -1.99424401e-02  2.57580504e-02
   5.41991554e-02 -7.08545968e-02  4.65699434e-02 -1.07058853e-01
  -3.91926989e-02 -1.54036079e-02  7.34294706e-04 -6.15636483e-02
   8.34046490e-03 -3.32054012e-02  4.53214534e-02 -3.83954681e-03
  -2.77327728e-02  8.17907043e-03 -2.04122178e-02 -4.74209264e-02
   5.02787344e-02 -3.80095430e-02  2.25683339e-02 -7.45292827e-02
   7.58774532e-03  1.23903908e-01  3.57767567e-02  3.20127420e-02
  -3.34884226e-02 -1.31740943e-02  2.41758283e-02  2.73364154e-03
  -2.81725246e-02  4.52889986e-02 -4.81706560e-02 -1.73037723e-02
  -4.36780788e-02 -1.08676460e-02 -1.97714567e-03 -4.84330505e-02
   7.22582266e-02  5.12128621e-02  9.16751567e-03 -2.13385541e-02
  -4.96175252e-02 -1.16752787e-03 -3.49249057e-02  4.75040190e-02
  -8.42972994e-02  1.21948047e-04  4.26520035e-02 -4.25823778e-02
  -8.02478343e-02 -9.59334522e-02 -5.06062321e-02 -6.20589145e-02
   3.15351179e-03 -3.19543146e-02 -7.72518963e-02 -4.27176990e-02
   5.53540140e-02  3.47734094e-02 -6.36140332e-02 -1.77145470e-02
   2.99076382e-02  9.57188383e-02  1.26563245e-02 -3.58390342e-03
  -4.00141552e-02  6.99903890e-02 -4.10112254e-02  3.70372050e-02
  -6.22121580e-02 -3.05043388e-04  1.87986400e-02  9.86855570e-03
  -8.43726471e-02  2.85605453e-02 -8.49910080e-02 -5.28979860e-02
   3.81239168e-02  3.77544165e-02 -1.33003592e-02  2.33942401e-02
  -7.44898468e-02 -1.67282950e-02  3.14515084e-02  3.33817042e-02
   2.06041522e-02  1.91516541e-02 -2.28634160e-02 -9.78941936e-03
  -6.58621341e-02 -4.49794978e-02 -5.70677295e-02 -6.54582083e-02
   4.03848570e-03  9.05207079e-03  1.45427613e-02 -6.36333823e-02
   1.23122884e-02 -3.95283028e-02 -8.92545190e-03  3.86263058e-02
   4.36087064e-02 -7.15055019e-02 -3.30828130e-02  5.32771051e-02]
 [-7.44865043e-03 -6.79112300e-02  1.59999982e-01  9.17822048e-02
   3.11726388e-02  2.88601685e-02  1.10243946e-01  1.81443959e-01
  -6.24123104e-02  4.81072031e-02  5.01612294e-03 -3.02695006e-01
  -2.60447040e-02 -1.28907710e-02  5.74653503e-03 -5.02604507e-02
   4.48213257e-02 -6.69318959e-02 -5.37547469e-02  4.11206260e-02
  -4.84326519e-02 -5.64706884e-03 -1.26438560e-02  1.75640918e-02
   1.51341677e-01  4.76904139e-02 -8.26679170e-02 -3.87207158e-02
  -4.39267717e-02  3.98259237e-02  3.15276794e-02 -5.14499061e-02
  -6.83784783e-02  3.14342082e-02 -2.75549330e-02  2.09523030e-02
  -1.18286908e-01 -8.66545178e-03 -3.26678227e-03 -6.66685728e-03
   4.69554588e-02  5.11063077e-03  4.35195714e-02 -1.72010120e-02
  -8.10616016e-02 -1.11010037e-02  5.28806113e-02 -4.59680669e-02
   3.12399194e-02  4.93211038e-02 -2.69158572e-01  8.77195522e-02
  -4.68196273e-02 -3.36161219e-02 -4.58455309e-02  3.45334411e-02
  -1.63490131e-01 -7.82147329e-03 -9.42014977e-02  1.69572625e-02
  -1.17877804e-01 -1.84671953e-03 -4.33656434e-03 -8.44449028e-02
   1.31183535e-01  1.07883085e-02 -3.09905149e-02 -3.52345556e-02
   4.88431677e-02  8.82959180e-03 -1.58178993e-02 -4.36045369e-03
   4.40378813e-03 -4.15785968e-01 -9.00797546e-02 -3.85251269e-02
  -7.39554912e-02 -6.61096871e-02  1.82655100e-02 -3.85864303e-02
  -6.99970946e-02  4.98661101e-02  2.15830162e-01 -4.50156704e-02
  -1.29245305e-02  2.62527857e-02 -2.95104757e-02  5.12959994e-03
   2.20731162e-02 -7.06800222e-02 -1.60183847e-01  2.98705250e-02
  -8.15372318e-02  1.92949653e-03  6.75377846e-02 -4.21346314e-02
   1.38403609e-01  1.46633774e-01 -5.69415465e-03 -1.92434937e-02
   4.49404605e-02  1.12529371e-04 -4.83047254e-02  3.29105742e-02
  -4.85656001e-02  7.79666752e-02 -2.31650308e-01  5.97653016e-02
  -2.90012248e-02 -2.48843692e-02 -4.93598320e-02  6.40916750e-02
  -1.09206093e-02  1.87476873e-02 -2.29325071e-02  6.69065397e-03
   3.10821384e-02  1.08213015e-01  3.86934876e-02  5.62079996e-03
  -2.04036050e-02  1.53086931e-02 -7.79992640e-02 -1.69309378e-02
  -1.84196141e-02 -4.33183610e-02  3.10372747e-02 -5.18452004e-02]
 [ 7.12641235e-03 -3.85268629e-02 -5.48594296e-02  5.66742867e-02
  -6.37492090e-02 -5.33286184e-02  1.49489390e-02 -3.59594151e-02
  -4.37097996e-02 -5.89613058e-02  8.20868090e-03  6.62975088e-02
  -3.46853398e-02 -7.17419237e-02 -4.98586409e-02  2.92718243e-02
  -4.75982763e-02 -7.56469229e-03 -5.06439917e-02 -4.50937450e-03
  -8.22127983e-02  1.93787273e-02 -1.75420791e-02  2.57122088e-02
   7.02574402e-02 -8.94500837e-02 -4.26692478e-02 -3.24261840e-03
  -5.36912270e-02 -5.11801802e-02 -2.12850496e-02 -6.94403658e-03
  -5.39085791e-02 -3.11009828e-02 -4.17695753e-02  1.13827568e-02
   1.79186668e-02 -2.08093096e-02  1.99962240e-02 -2.70664487e-02
   4.80383495e-03  8.21790472e-03  2.42480282e-02 -7.79938400e-02
   5.89158526e-03  4.75547798e-02 -1.95986088e-02 -3.94252464e-02
   2.65962561e-03 -6.48858920e-02  3.76616083e-02  3.63143627e-03
   2.68560704e-02  2.08455641e-02  1.20393727e-02  2.25079022e-02
  -1.69394687e-02 -3.02309338e-02 -3.93714309e-02  1.96581464e-02
   2.68503595e-02  9.58222430e-03 -6.87404126e-02  5.69635862e-03
  -3.20816040e-02 -2.89238542e-02 -1.18547853e-03  1.51221629e-03
  -1.90691277e-02 -3.33320014e-02 -4.08194177e-02 -4.88975123e-02
  -1.08136963e-02  5.79712680e-03  5.86942099e-02 -4.66029234e-02
  -5.50827570e-02  4.56261300e-02  3.25689726e-02 -5.53259114e-03
  -1.69369262e-02 -1.10133504e-02 -7.91207179e-02  1.91376191e-02
   1.21984147e-02 -3.22616845e-03 -1.34842247e-02  4.19059172e-02
  -2.15313230e-02 -2.01340709e-02 -1.68369189e-02  1.06695160e-01
  -1.87100768e-02 -8.75812117e-03 -2.05962155e-02 -5.52727915e-02
  -1.63169621e-04  2.23699342e-02 -2.63324175e-02 -6.51213154e-02
   5.41479215e-02  1.69084296e-02 -1.57133210e-02 -5.99083863e-02
   8.91050324e-03  5.91098443e-02 -1.33765908e-03 -1.79859698e-02
  -3.85985412e-02 -2.87117716e-02 -2.27232613e-02  4.40778360e-02
   1.93642173e-02 -3.65811437e-02 -5.70310801e-02 -1.90846864e-02
  -9.72021651e-03 -1.83845665e-02 -2.51423735e-02 -8.88848025e-03
  -2.11740341e-02 -2.93569993e-02  8.53536204e-02 -3.10507454e-02
   1.74922850e-02  2.36683767e-02 -1.42815849e-02 -9.26544133e-04]
 [-4.82404158e-02 -6.06213547e-02  1.13727584e-01 -2.13227514e-02
   1.39049422e-02  4.68808301e-02 -3.07274517e-02 -8.18332657e-02
   4.12542485e-02 -2.60711014e-02 -4.51815389e-02 -5.24025084e-03
  -5.55515364e-02 -4.50311005e-02  2.81293821e-02 -4.30021882e-02
  -5.20071574e-02 -6.53952584e-02  1.89682506e-02  2.87588406e-03
   8.29420760e-02 -4.53741588e-02 -2.92549059e-02 -2.76995152e-02
  -1.43056689e-02 -8.68336335e-02 -9.52984989e-02 -1.07167356e-01
  -3.83366086e-02 -7.01078176e-02 -6.79808494e-04  3.44625302e-02
  -5.05536273e-02  3.20890434e-02  2.92874072e-02 -7.47461915e-02
   4.82150950e-02 -5.99715710e-02 -3.43046375e-02  5.11239693e-02
  -7.71384239e-02  1.93275101e-02 -7.47773424e-02 -4.30688970e-02
   2.08411720e-02  8.15577507e-02 -3.01001966e-02  3.50797251e-02
   7.76149333e-02  8.28386620e-02  3.94648686e-02  2.54642418e-05
   4.38726768e-02  7.81410933e-03 -1.77197088e-03 -1.34309009e-01
   6.54031858e-02  4.54524122e-02 -7.25156888e-02 -6.10048603e-03
   1.41318450e-02 -2.90611964e-02 -3.39158718e-03 -1.36386948e-02
  -1.92784406e-02  3.28199379e-02 -6.08118810e-02  4.68898378e-02
   7.90934563e-02 -5.34455143e-02 -9.80325136e-03 -3.97142619e-02
   7.69061781e-03  4.09098975e-02 -1.48915723e-01 -7.24415109e-02
  -6.20087385e-02  4.17472348e-02  1.64190438e-02  1.62187964e-02
   4.99772280e-02  3.90122719e-02 -6.60446808e-02  1.24466307e-02
   2.98040342e-02  6.25053942e-02 -5.66393957e-02  2.78954823e-02
  -3.65542285e-02  8.28764495e-03  6.51017278e-02  6.31247833e-02
   3.96761149e-02 -6.03854619e-02  2.85586026e-02  2.24783346e-02
   1.54093569e-02 -4.64335047e-02 -1.00322016e-01  1.18583785e-02
  -7.77676478e-02  2.14574840e-02 -4.44320738e-02 -3.27399112e-02
   4.13126918e-03  5.15580066e-02  9.99451503e-02 -7.01451525e-02
   1.72431804e-02  1.37703866e-03 -2.61306390e-02  5.51449582e-02
  -8.99498537e-03  1.57155544e-02 -6.05267137e-02 -1.95845757e-02
  -2.66302247e-02 -7.53257424e-02  8.58317508e-05  3.04672662e-02
  -5.30465646e-03  7.61794150e-02  3.31526957e-02 -2.41740998e-02
  -1.67284086e-02  1.10850722e-01 -2.19534822e-02 -3.19823846e-02]
 [-7.15551525e-02  5.03020696e-02  1.78214572e-02 -9.79054794e-02
  -6.95700711e-03 -7.00127473e-03 -2.35529505e-02 -1.61687240e-01
  -2.32161651e-03  3.13986875e-02 -6.24057427e-02 -5.78590631e-02
   2.03546043e-02  2.01112274e-02 -2.24836916e-02  1.45666180e-02
   2.30629984e-02  2.89121456e-03 -1.00157773e-02  3.61620001e-02
   4.08122875e-02 -6.23554084e-03  3.47527442e-03 -1.27198817e-02
  -2.96832826e-02  4.47670817e-02 -2.98700165e-02  8.38890746e-02
  -6.57461584e-02  2.08167452e-02 -5.12083843e-02 -3.05370130e-02
   3.04777492e-02 -5.94419688e-02 -3.82963717e-02  1.66193973e-02
  -7.64724463e-02  1.21373227e-02  2.17672978e-02 -1.64407790e-02
  -4.76584360e-02 -6.32011518e-02  2.54270546e-02  4.05778438e-02
   2.63800379e-03  5.16724847e-02  4.91326638e-02  7.30917007e-02
  -3.88455987e-02 -6.37344569e-02 -3.02248672e-02  6.87866285e-02
   2.78939866e-03  6.80539235e-02 -1.39185572e-02  6.13897282e-04
  -4.75307554e-02 -7.46303238e-03  4.54884619e-02  1.31090079e-02
   1.11658052e-01 -6.33460134e-02  4.52180728e-02 -9.38190967e-02
   9.84539315e-02 -6.28426522e-02 -6.97421702e-03 -1.07804202e-02
  -7.92756528e-02 -3.76366489e-02 -1.20143024e-02  1.74368005e-02
   6.19911142e-02 -2.14545816e-01 -2.52574161e-02 -2.05104661e-04
  -2.14135032e-02  1.00239646e-02 -1.36695737e-02  4.69572879e-02
   3.48544121e-02 -3.09682055e-03  2.01101489e-02  4.04915288e-02
  -3.71434726e-02  4.83783968e-02 -8.42099171e-03 -5.60030248e-03
  -4.54794616e-02 -5.88549487e-03 -8.03201795e-02 -4.82967123e-02
  -1.21611014e-01  1.11430231e-02 -6.93446472e-02  3.24305855e-02
  -1.00684822e-01 -2.32903302e-01 -8.21514726e-02  2.32769102e-02
  -7.14769363e-02  2.54483819e-02 -5.96418977e-03 -1.00171668e-02
  -5.79341240e-02  5.71501441e-02 -1.80673618e-02  1.38371894e-02
  -4.75850850e-02  3.06381565e-02 -4.00904603e-02 -3.75870913e-02
  -3.02235652e-02 -4.38633785e-02 -1.28572853e-02 -5.97516745e-02
   3.57238576e-02  1.98949268e-03  7.77020399e-03  1.47326812e-02
   1.98615082e-02  6.78902073e-03 -6.46638945e-02  2.34800112e-02
   5.79024516e-02 -4.18586209e-02 -2.68682484e-02  2.75752805e-02]
 [ 1.16363205e-02  3.17214690e-02  1.97656870e-01  3.52543332e-02
  -3.45605575e-02 -5.83454706e-02  4.57168929e-02  3.50418985e-02
   1.61767453e-02 -5.95502742e-02  2.11343821e-02  3.45397331e-02
  -3.57752964e-02  3.19802091e-02  3.66973057e-02 -3.30686644e-02
   7.33862352e-03  1.78827811e-02  2.09003046e-01  1.28981592e-02
  -6.31377995e-02  2.94444780e-03 -6.83058053e-02 -5.28427549e-02
  -1.21271713e-02 -8.91477540e-02 -3.65624093e-02  1.08877435e-01
  -2.63480842e-02  1.21398149e-02  2.40567103e-02  3.69577631e-02
   4.35439460e-02 -4.73482907e-02 -2.85347458e-02 -9.53321997e-03
  -2.15277281e-02 -1.14975693e-02  2.38874257e-02 -4.35069799e-02
   1.53343836e-02  1.15904994e-02 -3.45038995e-02  5.60468622e-02
   1.05290473e-01 -1.71887249e-01  4.64629382e-03 -1.90997496e-02
  -1.35673940e-01 -1.50436331e-02 -1.02045335e-01 -1.17366247e-01
  -3.49640399e-02 -3.93869393e-02  4.68037613e-02  6.67950138e-02
   5.00495620e-02 -6.68002591e-02 -1.79821253e-02 -4.25290503e-03
   1.79736428e-02 -3.17720287e-02 -2.58474723e-02 -1.08473398e-01
  -2.92818956e-02 -5.77620901e-02  3.14265788e-02 -4.71329056e-02
   9.45947990e-02 -4.17980924e-02 -2.48187892e-02 -1.50258383e-02
  -6.62441477e-02 -1.02236375e-01  1.84947714e-01  7.01094121e-02
  -4.75670770e-02 -6.18530810e-02 -2.75635589e-02 -2.04770993e-02
   2.48749033e-02  1.05882939e-02 -4.00263742e-02  4.09535170e-02
  -5.16613834e-02 -1.68930843e-01 -4.82404679e-02  6.05549151e-03
  -2.62560882e-02  1.25782773e-01  1.13496140e-01  5.07995039e-02
  -5.79010136e-02  4.48960625e-02  1.52334748e-02  4.11933102e-02
   1.26318991e-01  2.61605904e-02 -4.24584448e-02  1.88625585e-02
   2.54200911e-03  3.26721296e-02 -3.37093957e-02  3.59881632e-02
  -1.31222636e-01  4.93051037e-02  1.40465215e-01  9.09055993e-02
   3.14180180e-02 -2.23838910e-02  2.63246540e-02 -2.00827792e-02
   4.87113632e-02  3.43146585e-02 -6.18557855e-02 -6.21055327e-02
   2.08277069e-02 -4.76381257e-02  2.36999672e-02 -6.14213245e-03
  -6.34968802e-02 -4.83983457e-02  4.95825596e-02  2.58590207e-02
   6.29884005e-02 -5.02744466e-02 -4.99784872e-02  5.90772852e-02]
 [-1.94813777e-02 -3.36490795e-02 -1.04936101e-01 -1.55751063e-02
   1.05072968e-02 -5.14814397e-04 -1.13201350e-01  2.23328993e-02
   3.97969298e-02  4.05521020e-02 -1.23926811e-02  1.71987452e-02
  -4.02366705e-02 -1.57502331e-02  2.85164546e-03  1.41465580e-02
  -1.55578945e-02 -6.81544170e-02 -9.75450967e-03  5.44629321e-02
  -1.00946307e-01 -6.46218881e-02  5.50277205e-03 -2.75912788e-02
   7.69859599e-03  5.95763419e-03 -2.58723274e-02 -3.44039127e-02
  -1.67820435e-02 -5.67341372e-02  1.81803200e-02  3.87352556e-02
  -4.10318486e-02 -6.12802757e-03 -4.72827218e-02  1.15249446e-02
  -2.92119887e-02  4.08169851e-02 -5.17783221e-03  3.95063795e-02
  -5.00871912e-02 -4.89307120e-02 -1.47172203e-02 -9.57302600e-02
  -5.40794879e-02  8.88173059e-02 -5.07369153e-02  2.24787928e-03
  -1.90516394e-02 -9.15178731e-02 -6.84361607e-02 -3.68176997e-02
   4.10066321e-02 -6.64054230e-02 -3.14608365e-02 -1.29385799e-01
  -2.12308373e-02 -6.08048439e-02 -6.69186339e-02 -5.73734604e-02
   1.47969332e-02 -8.89290310e-03  3.19988914e-02 -1.82173271e-02
   3.14903557e-02  3.02526448e-02 -9.20803174e-02 -2.31637899e-02
  -1.01203516e-01  4.57930728e-04 -1.45079652e-02 -6.38710558e-02
  -6.68065436e-03 -2.62683295e-02  2.72308029e-02 -4.05929759e-02
  -5.04309461e-02 -3.48671973e-02 -7.23550245e-02 -4.17858027e-02
   4.69036549e-02 -4.12046686e-02 -1.06736481e-01  2.23352257e-02
  -3.39158140e-02  1.64948404e-01 -3.61146256e-02  1.11919520e-02
  -6.32128790e-02  5.95943108e-02 -3.55672464e-02  1.28989056e-01
  -4.87711728e-02 -6.28044084e-03 -7.75759518e-02 -3.77391092e-02
  -9.88251120e-02 -3.02600991e-02 -2.31529959e-02 -3.02551370e-02
   3.26563902e-02 -5.99119477e-02 -7.74810906e-04 -5.39309531e-02
  -5.16104139e-02 -1.05144061e-01  4.56325822e-02 -5.36339134e-02
  -6.53289035e-02  1.65163784e-03 -1.05366798e-03  1.67607255e-02
  -3.97649296e-02 -5.40136956e-02 -9.63271409e-03  2.59026345e-02
   3.61578614e-02  5.15146889e-02 -2.68661398e-02  2.97027826e-03
  -5.82277663e-02  4.89870608e-02  9.21571404e-02  1.45030487e-02
   3.38803418e-02 -5.66387847e-02 -2.28076763e-02  3.66684003e-03]
 [-7.26130232e-02 -2.70618256e-02  2.03222528e-01 -8.48249272e-02
   8.59301258e-03  2.11044326e-02 -1.45869364e-03 -5.02128378e-02
   2.63777729e-02 -6.15679882e-02 -1.26113687e-02 -1.56364456e-01
  -4.35244925e-02 -6.50890991e-02  1.37465948e-03  2.64727958e-02
   4.60665487e-02  4.05469583e-03  5.23487106e-02 -4.31661531e-02
  -3.62975672e-02 -1.67707307e-03  4.93597612e-02  2.71858415e-03
   1.88487366e-01  3.53345983e-02 -4.03335355e-02 -5.20627797e-02
   3.83451805e-02 -2.26454041e-03 -4.91076447e-02 -5.13322651e-02
  -5.30662388e-02  3.28244865e-02  2.27165017e-02 -2.04557627e-02
  -5.88838477e-04 -3.74311507e-02  2.75628399e-02  7.51670683e-03
   6.19118698e-02  1.67860985e-02  1.03154466e-01  8.22494254e-02
   4.15394008e-02 -6.51862398e-02  6.60154223e-02  3.15497369e-02
  -7.22795576e-02  3.96716502e-03 -1.22975208e-01  3.84129845e-02
   2.16333810e-02 -1.81044564e-02  4.31845523e-02 -5.56117222e-02
  -8.31073523e-02  2.54326798e-02  1.35513479e-02 -1.66266523e-02
   8.67890939e-03  1.68964192e-02 -1.39404029e-01 -2.05553770e-01
   4.30609025e-02  5.74466819e-03  5.20544946e-02  1.35945724e-02
   9.89074558e-02  5.48370928e-02 -2.29207166e-02  4.23099436e-02
  -9.35549475e-03 -1.58891633e-01 -5.37186414e-02 -2.22511329e-02
   1.73324719e-02 -2.90540624e-02 -9.91708692e-03  1.49811590e-02
  -1.67452060e-02  5.11160679e-02  1.76834777e-01  1.70601234e-02
   1.46088842e-02 -6.71508536e-02 -2.36399882e-02 -3.38797383e-02
   5.39781479e-03  8.40272382e-02 -8.57943371e-02  1.38481975e-01
  -1.27412140e-01  5.47562018e-02 -4.48611425e-03  3.23467259e-03
  -1.08468577e-01  2.19228819e-01  1.60392746e-01  5.04847467e-02
  -4.44046371e-02  3.48972194e-02  5.34941182e-02 -2.13655569e-02
   3.47518176e-03  8.95657316e-02 -1.29314944e-01 -5.29311448e-02
   7.27777509e-03 -6.39310926e-02 -5.39790951e-02  2.40598489e-02
  -4.91347983e-02  4.90800617e-03 -2.56541222e-02  1.74836665e-02
  -6.80464655e-02  9.66438726e-02 -3.79398987e-02 -1.18325502e-02
  -1.07181091e-02 -1.23577408e-01 -6.74589202e-02 -3.55709940e-02
  -3.41846980e-02  5.21291383e-02  4.61566597e-02  4.59014736e-02]
 [ 1.09699434e-02 -1.96743663e-02 -3.39672863e-02  6.35321587e-02
  -4.25676517e-02 -3.19018885e-02  4.45903912e-02 -3.19526568e-02
   2.55170893e-02 -5.90139441e-02  2.95453668e-02 -6.43067509e-02
  -3.76605764e-02 -8.00948218e-02  2.06180345e-02 -9.87617299e-03
  -6.29590154e-02 -6.59946278e-02  2.84055714e-02  4.59889844e-02
  -5.13098203e-02 -3.30964997e-02 -2.18573380e-02 -1.44024910e-02
   3.89931127e-02 -3.25716436e-02 -4.97522671e-03  1.96641199e-02
  -4.37292755e-02 -1.69025548e-02 -4.48906086e-02 -5.65767661e-02
  -3.81403901e-02 -1.45033258e-03 -5.05867675e-02 -1.37267299e-02
   3.55249196e-02 -3.23820412e-02  2.19955556e-02 -1.88962352e-02
  -5.38359918e-02 -6.07549073e-03 -4.08405391e-03  1.11414343e-02
  -7.58925173e-03  6.37555942e-02 -4.83090468e-02 -8.51928294e-02
  -7.77136460e-02 -3.10614388e-02  1.05257388e-02 -7.77119026e-02
   5.07317744e-02 -9.39539541e-03  2.59527862e-02 -1.00456376e-03
  -4.26848456e-02 -5.92000559e-02  1.35990409e-02  9.85732488e-03
  -4.91987318e-02  5.35141788e-02 -5.77350408e-02 -1.62661225e-02
  -1.46192322e-02  6.19926630e-03 -9.14812461e-02  1.22819282e-02
   6.64350577e-03 -3.73299457e-02  2.00683177e-02  1.67423636e-02
  -5.92443310e-02 -4.24545305e-03  8.25352892e-02 -2.37484556e-02
   2.57507078e-02 -4.86092903e-02 -1.68162137e-02 -3.56215686e-02
  -4.36026976e-02  2.98903193e-02 -5.91100380e-02 -5.67784086e-02
   5.38233481e-02 -1.98352132e-02 -2.32586674e-02 -8.41898564e-03
  -1.87423490e-02  2.49887053e-02  3.16170081e-02  4.16703662e-03
   2.89850384e-02 -3.70148532e-02 -6.91328123e-02  1.83187909e-02
   1.67778935e-02  9.57832672e-03  4.51445319e-02  7.11989775e-03
   6.64095432e-02  3.15458812e-02 -1.96339078e-02 -3.01665533e-02
   1.94417704e-02 -3.97533029e-02  2.90187681e-03  2.09736861e-02
   1.29436571e-02 -4.58248556e-02 -6.77429745e-03  4.30112071e-02
  -2.81537995e-02 -5.88793978e-02 -5.73035143e-02 -3.85773368e-02
  -3.17842215e-02 -6.50655553e-02  3.47520821e-02 -1.21768275e-02
  -1.49545558e-02 -7.83224478e-02  4.68109734e-02 -1.45404469e-02
   4.49181087e-02  9.31082964e-02 -9.88496747e-03 -1.44195296e-02]
 [ 5.18779121e-02 -5.30005954e-02 -2.01164130e-02  3.86881381e-02
  -3.51638123e-02  2.18257234e-02  2.65618116e-02  1.25830367e-01
  -4.14288677e-02  1.39319664e-02 -1.84119437e-02 -3.87949795e-02
   7.68870115e-02 -5.67477569e-02  4.99629006e-02 -6.94376677e-02
  -4.09443490e-03  1.13424174e-02 -3.86349894e-02  2.88415495e-02
   3.65260430e-02  1.08449273e-02  1.05697839e-02 -1.58549063e-02
  -7.07734078e-02 -8.64301175e-02 -4.80330288e-02  6.62456304e-02
   2.41792500e-02  5.91596449e-03 -1.25956573e-02  5.24647795e-02
   6.29771128e-02 -4.69780192e-02 -3.65511589e-02  3.54079418e-02
   8.40893835e-02 -8.80670547e-02  5.70340902e-02  2.51105297e-02
  -8.23708847e-02 -5.22269122e-03 -4.37935926e-02 -9.20768231e-02
   7.54967108e-02  3.63414437e-02 -8.13239813e-02  1.76259279e-02
   9.42329168e-02  9.28122103e-02  6.12353161e-03 -5.71938157e-02
  -4.26313989e-02  4.98028621e-02 -5.45421010e-03 -7.86146298e-02
  -2.19260380e-02 -4.18040901e-02 -9.45316777e-02  1.88979488e-02
  -7.08021373e-02  1.07162455e-02  1.87660931e-04 -5.83694279e-02
   1.97289102e-02 -1.29438331e-02 -6.57782927e-02 -2.39714161e-02
   4.17318381e-02 -5.24831861e-02  4.45043109e-03 -2.99524399e-03
  -3.33681554e-02  6.32699877e-02 -9.23135132e-02 -5.96632250e-02
  -4.05538455e-02  2.57126968e-02 -8.21016580e-02  4.29369509e-02
  -1.19661679e-03 -2.05575693e-02 -3.38221341e-02  2.58699767e-02
   6.71941787e-02 -5.55595011e-02 -6.61219358e-02 -1.93781946e-02
  -7.44914338e-02  5.26641384e-02  7.65814492e-03 -3.07808761e-02
   2.34335493e-02 -1.96656194e-02 -9.15475488e-02  1.71524808e-02
   6.10009655e-02  7.90999904e-02 -1.27932653e-01 -5.24919070e-02
  -4.91441675e-02  4.85249609e-02 -4.81780507e-02 -2.12459806e-02
  -2.20791996e-02 -1.30470067e-01  3.80346589e-02 -8.12592283e-02
   7.48569071e-02 -6.48946017e-02  1.56561367e-03  7.39900768e-02
  -1.85126606e-02 -2.57280841e-02 -3.61588271e-03 -5.26467562e-02
  -6.94389939e-02 -1.68837234e-02  3.27123366e-02 -4.59752977e-02
   8.78710020e-03 -1.05889682e-02 -1.90045722e-02 -1.97870750e-02
   3.40056084e-02  2.58636009e-02  5.18338494e-02  2.62215175e-02]
 [-5.12841856e-03  1.62421931e-02  4.05112132e-02 -6.82294071e-02
   5.62660955e-02 -1.87040737e-03 -3.61243337e-02  3.38824280e-02
  -5.22049889e-02 -1.69261638e-02 -4.66604270e-02 -4.55193594e-02
   2.08152663e-02 -7.53174722e-03  4.12762165e-02 -1.54163511e-02
  -2.82945409e-02 -5.97126037e-02  1.81204285e-02 -5.90057857e-02
   5.56892417e-02 -3.32084857e-02 -1.82631370e-02 -3.05009000e-02
   8.14301148e-02 -4.29894263e-03 -2.94150393e-02 -5.49149625e-02
